// Auto-generated TinyDet weights (float32) - BN folded where possible
#ifndef TINYDET_WEIGHTS_H
#define TINYDET_WEIGHTS_H

// stem_conv_weight  shape=(16, 1, 3, 3)
static const float stem_conv_weight[16][1][3][3] = 
{{{{0.7182656, -1.1555917, 0.6190886},
{1.5013100, -0.2649768, 2.8505592},
{1.3419770, -1.7060994, -0.2171542}}},
{{{3.1464524, 0.7734849, 1.3944497},
{4.7004933, -0.9547824, 3.0321577},
{-3.5547583, -2.6357718, -3.3369884}}},
{{{-0.3224089, 1.5496207, -3.0716231},
{1.2335179, -5.2586293, 2.9654055},
{-1.2550864, -4.0883446, 5.6886396}}},
{{{-0.5689285, 4.5663376, -7.1094542},
{-3.5420418, 3.8108063, -5.3350573},
{3.1590555, 1.7227091, 0.7201213}}},
{{{-4.4495535, 4.5009956, -2.4553335},
{-8.7557669, 1.3166549, -1.6048716},
{-4.2052073, 7.3550334, 8.0852251}}},
{{{3.2524016, 2.2794378, 1.6204123},
{1.4864553, 1.3635843, 1.6850650},
{-1.2486385, -4.1805592, -3.5764668}}},
{{{-1.8980272, 1.9509383, -0.4447153},
{-0.7412350, 0.1864074, 1.0863136},
{-2.6960156, 1.7165235, -2.4020929}}},
{{{-1.0636469, 0.5265185, 2.4357183},
{-0.9909247, -0.0153840, 1.1010814},
{0.7832614, 0.6086084, -0.1462995}}},
{{{1.3421359, 1.9723980, 1.0217061},
{-3.1052902, 1.0639914, -3.5165265},
{-3.8000131, -0.6344800, 2.8217607}}},
{{{1.1580848, -1.9661903, 0.1972005},
{2.8460391, -2.6137567, -4.9896646},
{-0.0649421, 1.7402151, 0.9244475}}},
{{{-0.7516883, -0.4552658, 0.2905979},
{2.1093397, -0.5603592, -0.6038513},
{3.1764529, 1.2585919, -1.2608378}}},
{{{0.0888716, 1.2331884, 0.8184736},
{-0.6970186, 0.6846130, 0.2916088},
{0.0565242, -0.0046529, 0.8784379}}},
{{{-3.1272862, 3.4013946, 3.9820096},
{-2.7168229, 3.0098355, 0.0414836},
{-0.6326001, -3.0677722, 1.4221426}}},
{{{1.6231307, 0.9477319, 0.2975927},
{-1.7682267, 0.5923910, -0.4451178},
{-2.2191427, -2.3066757, 0.2536649}}},
{{{-1.9856739, -0.3230452, -0.7990320},
{-1.3204778, -0.2614287, 0.7001910},
{-0.2526205, -0.1676105, 0.8510452}}},
{{{-0.5043153, -1.0958422, -0.6838385},
{-0.8854677, -0.6433905, 0.3620568},
{-0.2141551, 0.7991990, -0.5205783}}}};

// stem_conv_bias  shape=(16,)
static const float stem_conv_bias[16] = 
{-1.5393050, -1.1260699, 1.2379056, 1.1473364, -0.1674837, -1.1657103, 1.6152049, -1.4393038, 1.2410911, 1.3333101, -1.4152154, -1.5571393, -1.1325624, 1.3757236, 1.7589048, 1.6497351};

// stage2.0_depthwise_weight  shape=(16, 1, 3, 3)
static const float stage2_0_depthwise_weight[16][1][3][3] = 
{{{{0.1964321, 0.1795035, 0.1594586},
{-0.1220338, -0.1563711, 0.2973854},
{-0.2983827, -0.2268358, -0.1263245}}},
{{{-0.1871515, 0.1315774, 0.1323480},
{-0.0928824, -0.2867079, -0.0802516},
{0.0663243, -0.0190993, 0.2587269}}},
{{{-0.1921065, 0.0342853, -0.2781293},
{-0.1791205, -0.2960129, -0.3489623},
{0.0426936, -0.1213505, 0.1097710}}},
{{{-0.2284960, -0.2373848, -0.1074810},
{-0.0445722, -0.2427323, -0.0358352},
{0.0442568, -0.2085749, 0.2869421}}},
{{{-0.1289734, -0.2957603, -0.2241146},
{-0.1531155, -0.0805652, -0.2559022},
{-0.1177907, -0.2187832, -0.0508572}}},
{{{0.0035213, 0.0458871, 0.1142350},
{-0.2230195, 0.1573390, 0.0041737},
{0.2799389, 0.0347862, 0.2768273}}},
{{{0.1986719, -0.0455260, 0.3634265},
{-0.2491041, 0.1119589, -0.2213922},
{-0.2728111, 0.1923751, 0.2847901}}},
{{{-0.1714948, -0.3063033, -0.2052881},
{0.3355344, -0.2025535, -0.3186067},
{0.0561082, 0.1406224, -0.1381572}}},
{{{0.2702229, 0.3310933, -0.2395792},
{0.3021638, 0.1976354, 0.0502384},
{-0.2956756, 0.2690014, -0.1085579}}},
{{{-0.0104413, -0.2921151, -0.2314200},
{0.0459118, -0.1882259, -0.1102600},
{-0.2141600, -0.3583600, 0.1186962}}},
{{{-0.2082749, -0.1877403, 0.0444009},
{-0.0500874, -0.2422698, 0.0521219},
{-0.0456046, -0.1153495, -0.2015049}}},
{{{0.3554162, -0.0077843, -0.0328166},
{-0.0403632, 0.1734944, 0.0976225},
{0.0982314, 0.1501249, -0.3627288}}},
{{{-0.1164566, 0.0071292, 0.2435001},
{-0.0830627, -0.0210042, -0.0440943},
{0.1895815, -0.2723179, 0.1332330}}},
{{{0.2933235, 0.1238949, -0.0847468},
{0.2805758, 0.2914683, -0.1944229},
{0.3364762, 0.1711023, 0.2182796}}},
{{{-0.3290693, 0.2799928, -0.0525464},
{-0.3266596, -0.1079724, 0.2159554},
{0.0691874, 0.2944747, 0.2070762}}},
{{{-0.1797576, -0.0013029, -0.1249649},
{-0.2751530, 0.1384390, 0.3916149},
{-0.1604680, 0.0050117, -0.1323938}}}};

// stage2.0_pointwise_weight  shape=(32, 16, 1, 1)
static const float stage2_0_pointwise_weight[32][16][1][1] = 
{{{{0.4862854}},
{{-0.2440288}},
{{0.2900730}},
{{0.2168082}},
{{-0.0776022}},
{{0.6137385}},
{{0.7346829}},
{{-0.1470838}},
{{-0.8876861}},
{{0.1758115}},
{{-0.3851262}},
{{-0.6108999}},
{{0.5922284}},
{{-0.1955695}},
{{-0.0993249}},
{{0.6905135}}},
{{{0.3424625}},
{{0.5183352}},
{{0.3351204}},
{{0.3125145}},
{{-0.7016073}},
{{-0.3567900}},
{{-0.1755144}},
{{0.1955328}},
{{-0.7303349}},
{{-0.8691467}},
{{-0.5071396}},
{{0.6945126}},
{{0.0405235}},
{{1.0816483}},
{{0.4109176}},
{{-1.0822494}}},
{{{2.4701164}},
{{-1.1028078}},
{{1.7839580}},
{{0.7014689}},
{{-1.0047605}},
{{2.0550299}},
{{-0.3522534}},
{{0.4287824}},
{{0.2733402}},
{{-0.6792551}},
{{0.7574399}},
{{0.9939247}},
{{0.1773360}},
{{0.7668884}},
{{-1.0496662}},
{{-1.9426100}}},
{{{1.1324005}},
{{-1.8925263}},
{{0.7032611}},
{{-1.1132247}},
{{0.9737303}},
{{-1.3507246}},
{{0.3611902}},
{{-0.3354770}},
{{1.4825587}},
{{-0.3124103}},
{{-0.0966425}},
{{0.1602710}},
{{0.8975518}},
{{-0.8516055}},
{{2.0111561}},
{{0.1183657}}},
{{{-0.2498964}},
{{-0.7888157}},
{{0.6609617}},
{{-1.5944076}},
{{0.9502991}},
{{0.0389728}},
{{0.2093570}},
{{-0.3715780}},
{{0.8383421}},
{{-0.3323086}},
{{-0.0451165}},
{{1.5901705}},
{{-0.3258847}},
{{-0.7467406}},
{{-1.3537272}},
{{0.8347095}}},
{{{-0.1281577}},
{{0.3761017}},
{{-0.5962920}},
{{0.7967536}},
{{1.1999221}},
{{-0.6494572}},
{{-0.5636805}},
{{0.4990806}},
{{-0.2244740}},
{{-0.7775263}},
{{-0.9681118}},
{{0.5111060}},
{{0.0758332}},
{{-0.5335402}},
{{0.3416226}},
{{0.9981041}}},
{{{0.1725393}},
{{0.5692301}},
{{-1.1071395}},
{{0.1894000}},
{{0.8726583}},
{{-0.2570314}},
{{-1.4216501}},
{{-0.1502432}},
{{-0.8490118}},
{{-1.0650439}},
{{0.6810886}},
{{0.4881310}},
{{0.2801653}},
{{-0.3735481}},
{{0.4798519}},
{{0.4016778}}},
{{{-2.7863607}},
{{-1.3234496}},
{{1.6238147}},
{{1.5234039}},
{{0.7047123}},
{{0.6586764}},
{{2.3293669}},
{{0.9822275}},
{{2.3740461}},
{{-0.4685628}},
{{-1.7422878}},
{{-2.3457389}},
{{-0.7619026}},
{{-0.4215652}},
{{0.4853330}},
{{1.5799460}}},
{{{-0.6641555}},
{{-0.3382893}},
{{0.9839902}},
{{-0.4254048}},
{{0.7975302}},
{{-0.3626217}},
{{0.5168341}},
{{-0.6440961}},
{{-0.9521276}},
{{-0.8438321}},
{{0.7535906}},
{{-0.7629427}},
{{-0.1190261}},
{{0.5169758}},
{{1.4155636}},
{{0.5277920}}},
{{{-0.8422872}},
{{0.1094256}},
{{-0.2142395}},
{{0.1742457}},
{{-1.2000129}},
{{-0.0481096}},
{{-0.4792080}},
{{-0.2491838}},
{{-0.5857291}},
{{0.2428851}},
{{0.1390012}},
{{0.3938858}},
{{0.3778980}},
{{-0.2029497}},
{{0.0782846}},
{{0.0593003}}},
{{{0.0203187}},
{{-0.5546009}},
{{0.0222352}},
{{-0.1226111}},
{{-0.2830750}},
{{0.2920316}},
{{0.2568670}},
{{0.3824022}},
{{-0.4581803}},
{{-0.5132713}},
{{0.5814599}},
{{-0.4119675}},
{{-0.0305512}},
{{0.0834693}},
{{1.0241067}},
{{-0.3575835}}},
{{{0.4612999}},
{{-0.6649885}},
{{0.0176039}},
{{0.0017610}},
{{-0.4494417}},
{{-0.6711342}},
{{0.2126648}},
{{0.3115292}},
{{0.6527435}},
{{-0.0707515}},
{{0.1885731}},
{{-0.3629445}},
{{0.5552849}},
{{0.1513196}},
{{-0.3288017}},
{{-0.4572949}}},
{{{0.7631746}},
{{0.1111683}},
{{-1.3134145}},
{{-0.7547706}},
{{0.4483576}},
{{0.1497782}},
{{-1.0687767}},
{{-0.1759202}},
{{0.4085048}},
{{0.1081707}},
{{0.6767791}},
{{0.5399597}},
{{1.2852783}},
{{0.0303284}},
{{0.2742760}},
{{0.0684091}}},
{{{-0.9033583}},
{{0.8244855}},
{{-0.7637170}},
{{0.2277251}},
{{-0.1677836}},
{{-0.4811242}},
{{-0.0237669}},
{{0.0592169}},
{{-0.5081929}},
{{-0.0702230}},
{{-0.0688056}},
{{-0.7491122}},
{{0.0333931}},
{{0.6208527}},
{{0.9069532}},
{{0.5364799}}},
{{{0.6731298}},
{{-0.9521631}},
{{-0.0121883}},
{{-0.3671618}},
{{1.1081735}},
{{0.7938839}},
{{-0.2742407}},
{{-1.0061293}},
{{1.0543970}},
{{0.9112301}},
{{0.9433019}},
{{0.6930046}},
{{-0.7587128}},
{{0.0364678}},
{{-0.9422092}},
{{0.6851017}}},
{{{-0.5406096}},
{{-0.2175972}},
{{0.0592553}},
{{0.1349933}},
{{0.8012260}},
{{-0.2877838}},
{{-1.0162807}},
{{0.5725541}},
{{0.6182547}},
{{-0.2649449}},
{{0.2671229}},
{{0.7338216}},
{{0.4749459}},
{{0.6726524}},
{{0.2447457}},
{{-0.3235797}}},
{{{-0.6771975}},
{{0.8827238}},
{{-0.5559399}},
{{-0.2201489}},
{{0.2738248}},
{{0.5502087}},
{{-1.6668017}},
{{0.1535033}},
{{0.8909387}},
{{-0.2034252}},
{{-1.1811198}},
{{1.5148579}},
{{0.3111165}},
{{0.3940457}},
{{0.9312977}},
{{-1.3003860}}},
{{{-0.6479825}},
{{0.5324159}},
{{-1.0039856}},
{{-0.4950206}},
{{-0.1353134}},
{{1.4741943}},
{{-0.4799832}},
{{0.1964267}},
{{0.3836918}},
{{2.1298683}},
{{1.3060585}},
{{-1.2326820}},
{{-1.0585227}},
{{1.0301458}},
{{-1.0283003}},
{{-0.7991081}}},
{{{-0.1581841}},
{{0.1579358}},
{{-0.2540366}},
{{-0.3944853}},
{{-0.2525940}},
{{-0.2585384}},
{{0.3861141}},
{{0.3912694}},
{{-0.0129103}},
{{-0.4917837}},
{{0.2555849}},
{{0.1054950}},
{{0.2434200}},
{{-0.0596109}},
{{0.0221484}},
{{-0.3729787}}},
{{{1.5481706}},
{{0.1933225}},
{{-0.6891230}},
{{-0.5789425}},
{{-0.0770809}},
{{0.9175287}},
{{1.2848470}},
{{-0.2460899}},
{{-0.8256744}},
{{1.2385415}},
{{-0.6062061}},
{{0.9418157}},
{{-0.1586679}},
{{0.5747656}},
{{-0.7286420}},
{{1.1110613}}},
{{{-1.6271859}},
{{1.3262981}},
{{-0.6331115}},
{{0.8157160}},
{{-0.2538376}},
{{0.5640535}},
{{-0.8890493}},
{{1.7304521}},
{{-0.9460324}},
{{-0.1573867}},
{{-0.7544434}},
{{-0.4629825}},
{{-0.1272048}},
{{-0.5298305}},
{{0.2318412}},
{{1.5978884}}},
{{{-0.7115470}},
{{-0.0194150}},
{{0.7251455}},
{{0.0281167}},
{{0.6355952}},
{{-0.0391706}},
{{-0.2491959}},
{{1.2344240}},
{{-0.4614463}},
{{0.5897794}},
{{0.9660057}},
{{0.2317536}},
{{-0.5652391}},
{{0.9710217}},
{{-0.3548095}},
{{0.3272099}}},
{{{-0.2349854}},
{{-0.2539617}},
{{0.0888143}},
{{-0.6339724}},
{{0.5738400}},
{{-0.0038628}},
{{-0.2040301}},
{{-0.8914933}},
{{0.0500355}},
{{0.0524025}},
{{-0.5680498}},
{{1.4119800}},
{{-0.1674501}},
{{0.5797640}},
{{-0.6089049}},
{{0.6869730}}},
{{{-0.3538927}},
{{-0.3700967}},
{{-0.1679467}},
{{-1.1365832}},
{{-0.2930235}},
{{0.0335414}},
{{0.7780955}},
{{0.1387191}},
{{-0.0162876}},
{{-0.5556806}},
{{-0.7270865}},
{{0.1666323}},
{{0.1157262}},
{{0.2968248}},
{{-0.5311559}},
{{-0.3651134}}},
{{{0.8120804}},
{{0.0736185}},
{{0.1449001}},
{{0.8579424}},
{{-0.3654085}},
{{1.0680052}},
{{-0.3733555}},
{{-1.2020390}},
{{0.1060705}},
{{-0.2351226}},
{{0.8054009}},
{{0.5546292}},
{{-0.4830173}},
{{-0.4436188}},
{{0.0062073}},
{{-0.5148224}}},
{{{1.5717554}},
{{0.8179130}},
{{0.0645955}},
{{-1.0419793}},
{{1.3697463}},
{{-0.3319745}},
{{0.3099993}},
{{0.7658604}},
{{0.0967088}},
{{1.1852375}},
{{-0.8450797}},
{{-0.7401870}},
{{0.8773037}},
{{0.6905228}},
{{0.5791644}},
{{0.4841936}}},
{{{-1.1028864}},
{{-0.1018152}},
{{-0.5968435}},
{{0.4506983}},
{{0.7399101}},
{{-0.7647262}},
{{-0.7875807}},
{{-0.6045022}},
{{1.1489401}},
{{0.9996984}},
{{0.7480292}},
{{-1.1409311}},
{{1.3952934}},
{{0.7527041}},
{{-0.1169875}},
{{-0.5982244}}},
{{{-0.2526993}},
{{-0.4165417}},
{{-0.6862129}},
{{-0.1791364}},
{{-1.0726464}},
{{0.6567246}},
{{-0.9183474}},
{{-0.0118901}},
{{-0.6979359}},
{{0.1993136}},
{{0.6205985}},
{{-0.2897589}},
{{-0.0883753}},
{{-0.6085595}},
{{0.1254845}},
{{0.9482281}}},
{{{-0.4452502}},
{{-0.4148030}},
{{0.2214477}},
{{0.1268046}},
{{-0.5417205}},
{{-0.4612459}},
{{-0.6000116}},
{{0.5833852}},
{{0.5764166}},
{{0.2038655}},
{{-0.8756301}},
{{0.0642405}},
{{-0.1349234}},
{{-0.4952767}},
{{-0.6877115}},
{{0.5577140}}},
{{{1.2195041}},
{{0.5224147}},
{{-0.1101293}},
{{1.0764433}},
{{-0.5109266}},
{{-0.4817039}},
{{-0.0338619}},
{{-1.3584825}},
{{0.7852331}},
{{0.1335965}},
{{0.3820774}},
{{-1.3066878}},
{{-0.6603314}},
{{0.8658341}},
{{-0.4043657}},
{{-0.1958258}}},
{{{1.1008780}},
{{-0.7508431}},
{{1.0487019}},
{{0.9934713}},
{{-0.9620682}},
{{0.7296159}},
{{0.8861516}},
{{0.0916515}},
{{1.0635881}},
{{0.0002505}},
{{0.7602617}},
{{0.7733629}},
{{-1.0666598}},
{{0.4417934}},
{{1.0865195}},
{{0.8291788}}},
{{{-0.2690778}},
{{-0.3451688}},
{{0.7247663}},
{{0.3047983}},
{{-0.7167692}},
{{-0.8935558}},
{{0.7375521}},
{{0.6543237}},
{{-0.3374785}},
{{-0.2383652}},
{{-0.0032402}},
{{-0.4957123}},
{{0.8419521}},
{{0.3609940}},
{{0.6090206}},
{{-0.9339777}}}};

// stage2.0_pointwise_bias  shape=(32,)
static const float stage2_0_pointwise_bias[32] = 
{0.3989632, -1.1250231, -0.2922581, -0.0598087, -0.1118432, 0.2908858, 0.0828252, 0.4547080, 0.0792350, -0.0467912, -0.1535491, -0.0782147, -0.5797170, -0.3806353, 0.2025831, -0.1558612, -1.8070270, 0.3174937, -0.3834113, -0.4996272, 1.1272267, 1.3671649, -1.0030991, -1.3709671, -0.0883079, 0.4685618, 0.3730016, 0.4502034, 0.4640488, -0.2923280, -0.0305055, 0.0900753};

// stage2.1_depthwise_weight  shape=(32, 1, 3, 3)
static const float stage2_1_depthwise_weight[32][1][3][3] = 
{{{{0.0791453, -0.1318459, 0.0777542},
{-0.3228924, -0.2160128, -0.1606125},
{-0.2216446, 0.1526802, 0.3658046}}},
{{{-0.0009154, 0.0128994, -0.2308643},
{-0.1775405, -0.0049855, 0.0001547},
{0.2740190, 0.0181349, -0.1795241}}},
{{{-0.1691282, 0.2311540, -0.1112678},
{-0.0025303, -0.1571061, -0.0884591},
{-0.1777408, -0.2794347, -0.0164336}}},
{{{-0.3108405, 0.2286516, -0.0909107},
{-0.3399895, 0.0960846, 0.2064798},
{0.0560121, 0.1699636, 0.3326033}}},
{{{-0.0159473, 0.1049278, 0.3384380},
{-0.3258530, -0.2160425, 0.1565841},
{-0.1298816, -0.0093342, 0.1404873}}},
{{{-0.0640069, 0.2949611, -0.1376311},
{0.3021897, 0.0549320, -0.2040481},
{-0.1814446, -0.3114149, -0.1850202}}},
{{{-0.1864163, -0.0881184, -0.1432794},
{0.1281955, -0.1856211, -0.2820510},
{0.2736465, 0.3208038, -0.2412266}}},
{{{0.1828737, -0.2513680, -0.3792023},
{0.3768680, 0.1071376, -0.0574858},
{0.3324388, 0.2981922, 0.0354792}}},
{{{-0.3157054, -0.0346723, 0.2451742},
{0.3059945, 0.1925722, -0.2528305},
{0.1073386, -0.1681391, -0.3035677}}},
{{{-0.0886691, 0.0825927, 0.0610304},
{0.0815797, 0.2812765, 0.3324063},
{0.2015642, 0.0246251, 0.1580554}}},
{{{0.0702235, 0.2619403, 0.1160923},
{0.2376069, -0.0384695, 0.1155038},
{-0.3649758, 0.1833636, 0.2027437}}},
{{{-0.2458483, -0.2598353, -0.1842282},
{0.2504279, 0.2612216, 0.1588989},
{-0.2005939, -0.2668259, 0.2380171}}},
{{{0.3176054, 0.0122240, -0.1151498},
{0.3209800, 0.0761785, -0.2837798},
{-0.2443369, -0.1706928, -0.1355698}}},
{{{-0.2308856, 0.2559459, -0.1799739},
{0.0974445, -0.1652410, -0.2289113},
{0.2829354, 0.1300664, -0.2710533}}},
{{{0.0083481, 0.0891303, -0.2096273},
{-0.0248807, 0.2227112, 0.2302104},
{0.2217167, 0.1998724, 0.3026602}}},
{{{0.1723155, -0.0350240, -0.3335178},
{0.0424211, -0.1394581, -0.0132495},
{0.2483609, 0.3184903, 0.3236529}}},
{{{-0.3460308, -0.0362746, -0.0179010},
{-0.1170777, 0.0751978, 0.2373367},
{-0.1921618, 0.2153568, 0.1091193}}},
{{{0.0870100, -0.1971009, -0.0859616},
{0.2697957, 0.1724735, -0.1551623},
{0.0286837, 0.2972679, -0.1927366}}},
{{{0.2148559, 0.2632056, 0.0306154},
{0.0859976, 0.0090904, 0.0172561},
{0.0079156, -0.0140822, 0.2386182}}},
{{{-0.3262059, -0.1021532, -0.2502649},
{0.2480972, 0.2546838, 0.0968075},
{-0.1139925, -0.0803170, 0.1873020}}},
{{{0.2796749, 0.2269848, 0.2587423},
{-0.2981641, -0.1667522, 0.2169708},
{-0.2098590, -0.0573606, 0.0983394}}},
{{{-0.2333683, -0.2462097, 0.1187630},
{0.2201961, 0.1039898, 0.2349605},
{0.1007770, -0.2362273, 0.0740782}}},
{{{0.1381613, 0.1517062, -0.1397741},
{0.1691383, 0.1843637, -0.2703861},
{-0.0724020, -0.0999380, -0.1613043}}},
{{{-0.3051929, -0.2906642, -0.0723093},
{-0.0043956, 0.1016863, 0.3454489},
{-0.0617552, -0.1304903, 0.0422364}}},
{{{-0.2435386, -0.3634203, 0.1705369},
{0.0930441, 0.0210626, -0.0090408},
{0.2388841, 0.2252486, -0.2379569}}},
{{{0.0749619, 0.0941717, -0.0535506},
{0.0997762, 0.4109645, -0.0202890},
{0.0988588, 0.0811234, 0.1766559}}},
{{{0.1452748, 0.3067922, 0.0253764},
{-0.2010202, -0.0486733, 0.2927630},
{-0.1735872, -0.1914412, 0.1612086}}},
{{{-0.2648610, 0.1037229, -0.2615561},
{0.0402454, 0.2285937, 0.0625851},
{0.2902938, -0.1017923, 0.2799007}}},
{{{-0.3029609, 0.2230189, 0.1920887},
{-0.2711559, 0.0731341, -0.1776593},
{-0.2639677, -0.0040055, 0.2484715}}},
{{{-0.2401121, 0.1121616, 0.0913284},
{-0.0465549, -0.2038071, 0.3347516},
{0.0851777, 0.3012490, 0.3383128}}},
{{{0.2623050, 0.0864085, -0.1277465},
{0.1539748, 0.2747937, -0.0419412},
{0.3397000, 0.2503696, -0.0560685}}},
{{{-0.0463603, -0.1325391, 0.0450689},
{0.1575014, -0.2610614, 0.3091451},
{-0.2042795, -0.2814385, -0.2601858}}}};

// stage2.1_pointwise_weight  shape=(32, 32, 1, 1)
static const float stage2_1_pointwise_weight[32][32][1][1] = 
{{{{0.3930070}},
{{0.4923815}},
{{-0.2678746}},
{{-0.2319619}},
{{-0.0030324}},
{{0.4713615}},
{{0.2509500}},
{{0.4974128}},
{{-0.2373308}},
{{-0.5526509}},
{{-0.2329428}},
{{-0.1107458}},
{{-1.0735048}},
{{-0.3377285}},
{{-0.2245320}},
{{-0.2881914}},
{{0.6416592}},
{{0.4443892}},
{{0.3077113}},
{{-0.0661946}},
{{-0.4756368}},
{{0.1402689}},
{{-0.2981013}},
{{-0.0444807}},
{{-0.5364816}},
{{-0.2288285}},
{{0.3615268}},
{{0.4894128}},
{{-0.2883204}},
{{0.6034486}},
{{0.8176585}},
{{0.3554268}}},
{{{-0.0641245}},
{{0.6964664}},
{{0.3765096}},
{{0.0331341}},
{{-0.6520396}},
{{0.5943277}},
{{-0.2918037}},
{{0.4855327}},
{{0.6727512}},
{{0.0005214}},
{{-0.0020031}},
{{0.3456165}},
{{-0.0106653}},
{{0.2254569}},
{{-0.2279686}},
{{0.5179566}},
{{-1.0212288}},
{{0.2920862}},
{{-0.7794821}},
{{-0.3687337}},
{{-0.9996743}},
{{0.5265691}},
{{0.4252940}},
{{-0.0849301}},
{{0.1767330}},
{{0.6240898}},
{{-0.9633581}},
{{-0.3059435}},
{{0.0394610}},
{{-0.8343881}},
{{-0.2248445}},
{{0.6968195}}},
{{{-0.3289654}},
{{0.4329306}},
{{0.4867910}},
{{-0.0469696}},
{{-0.6849928}},
{{0.7106204}},
{{0.2093877}},
{{0.3318835}},
{{-0.6293899}},
{{-0.7425405}},
{{0.1623101}},
{{-0.2423446}},
{{0.0885761}},
{{0.1904439}},
{{0.5514067}},
{{0.9769354}},
{{-0.6374965}},
{{0.8042388}},
{{0.4597129}},
{{-0.5051353}},
{{0.7685626}},
{{-0.5522155}},
{{-0.7695699}},
{{-1.2510549}},
{{-0.7324172}},
{{-0.4857314}},
{{-0.0954224}},
{{-0.2861396}},
{{-0.4176840}},
{{-0.7050307}},
{{0.0294959}},
{{-0.1386615}}},
{{{0.0023839}},
{{-0.5678347}},
{{0.8594978}},
{{0.4292396}},
{{0.4004033}},
{{-0.2714714}},
{{-0.8079708}},
{{0.7363594}},
{{0.6400072}},
{{0.3462641}},
{{-0.0416196}},
{{-0.6338173}},
{{-0.4634996}},
{{0.1121221}},
{{0.1376048}},
{{-0.0222094}},
{{-0.6325948}},
{{0.6828094}},
{{0.3508690}},
{{0.5375338}},
{{-0.3339429}},
{{-0.0582627}},
{{-0.5448174}},
{{-0.7801874}},
{{0.5004990}},
{{0.4600824}},
{{0.2078652}},
{{0.4005952}},
{{-0.3822509}},
{{-0.1957292}},
{{-0.4996618}},
{{0.9178624}}},
{{{0.5335606}},
{{0.3296275}},
{{-0.3980986}},
{{-0.5848171}},
{{1.1165397}},
{{-0.1896679}},
{{-0.5746357}},
{{-0.5830820}},
{{-0.2203448}},
{{0.5976052}},
{{-0.3222448}},
{{0.5236333}},
{{-0.4194987}},
{{0.2555086}},
{{-0.0178364}},
{{-0.4937481}},
{{0.2121312}},
{{0.5697603}},
{{-0.3380228}},
{{0.1273353}},
{{-0.6383524}},
{{0.3239172}},
{{-0.2513138}},
{{0.5638674}},
{{-0.7133373}},
{{-0.4161798}},
{{0.2061913}},
{{-0.3063829}},
{{-0.7910182}},
{{0.6975441}},
{{0.1349829}},
{{0.4804690}}},
{{{0.3942412}},
{{0.5502509}},
{{-0.4227789}},
{{0.3203184}},
{{-0.2554650}},
{{0.3853562}},
{{0.2391956}},
{{0.5683851}},
{{-0.1234659}},
{{0.5398681}},
{{0.1872831}},
{{0.4638074}},
{{0.4757333}},
{{-0.0787591}},
{{0.0141431}},
{{-0.6235740}},
{{-0.1908127}},
{{0.3240213}},
{{-0.1509859}},
{{-0.6397999}},
{{-0.3725481}},
{{0.3110340}},
{{0.0731537}},
{{0.2762242}},
{{-0.2489855}},
{{-0.6239753}},
{{0.3593219}},
{{0.3704596}},
{{-0.2826531}},
{{-0.3108860}},
{{-0.3737706}},
{{-0.0955716}}},
{{{-0.7096506}},
{{-0.2916075}},
{{0.3546469}},
{{0.6709160}},
{{0.3300383}},
{{0.4222105}},
{{0.4555770}},
{{0.7029045}},
{{-0.1116319}},
{{-0.8113636}},
{{-0.3556311}},
{{-0.0997532}},
{{0.3486413}},
{{-0.0884064}},
{{-0.2139407}},
{{0.7493426}},
{{-0.6743274}},
{{-0.5888298}},
{{-0.7440683}},
{{0.2433963}},
{{-0.5615496}},
{{0.2214239}},
{{1.0755171}},
{{0.2429453}},
{{-0.3528768}},
{{0.8906631}},
{{-0.3692402}},
{{-0.7319037}},
{{0.0995712}},
{{0.7324366}},
{{0.2768852}},
{{0.7064317}}},
{{{-0.5055285}},
{{-0.4909573}},
{{0.7204515}},
{{0.4226795}},
{{-0.4584785}},
{{0.4589880}},
{{-0.1651827}},
{{-0.1302138}},
{{-0.0266195}},
{{0.3451114}},
{{0.5346392}},
{{-0.1317551}},
{{0.0740898}},
{{-0.3109907}},
{{0.8085979}},
{{0.2257468}},
{{-0.4715919}},
{{-0.4037507}},
{{-0.1220407}},
{{-0.3159233}},
{{-0.1964183}},
{{-0.4572113}},
{{-0.0513894}},
{{0.9661998}},
{{-0.1604040}},
{{-0.5260541}},
{{-0.4080824}},
{{-0.1088557}},
{{-0.1388699}},
{{-0.0174505}},
{{-0.3330060}},
{{0.8050669}}},
{{{0.0592338}},
{{-0.4845439}},
{{0.1778895}},
{{-0.5360138}},
{{-0.0995631}},
{{-0.0732853}},
{{-0.2366281}},
{{0.1040021}},
{{0.6749873}},
{{-0.2573926}},
{{-0.7128547}},
{{-0.5623443}},
{{0.4411511}},
{{-0.7226775}},
{{-0.0980698}},
{{-0.9788467}},
{{-0.5654617}},
{{0.4513065}},
{{-0.0356101}},
{{-0.0354767}},
{{-0.4185251}},
{{-0.5616849}},
{{-0.9009895}},
{{-0.0123341}},
{{-0.1972921}},
{{0.1048049}},
{{1.0125381}},
{{-0.9497181}},
{{-0.8104801}},
{{-0.6213920}},
{{0.7321853}},
{{-0.1301957}}},
{{{0.6048771}},
{{-0.1058719}},
{{0.0592754}},
{{0.6560757}},
{{0.6572437}},
{{0.1818985}},
{{-0.6367162}},
{{-0.1014588}},
{{-1.4853553}},
{{0.3437787}},
{{-0.5115033}},
{{-0.4507196}},
{{1.2821554}},
{{0.0123109}},
{{-0.2544658}},
{{1.0603580}},
{{-0.3457780}},
{{0.4459928}},
{{1.0152507}},
{{0.1412098}},
{{0.2366471}},
{{-0.6261753}},
{{0.3822315}},
{{-0.2678580}},
{{-0.3280729}},
{{-0.6884198}},
{{-0.4468148}},
{{0.5772974}},
{{-0.2585322}},
{{-0.4128278}},
{{-0.8636728}},
{{0.7570554}}},
{{{-0.3535752}},
{{0.2242746}},
{{-0.0462076}},
{{-0.0925164}},
{{-0.2567568}},
{{0.3316580}},
{{-0.1307581}},
{{0.0059616}},
{{0.1797295}},
{{0.7007792}},
{{0.3717726}},
{{-0.2036885}},
{{-0.0503058}},
{{0.3100904}},
{{0.4358236}},
{{-0.3960047}},
{{-0.6373490}},
{{0.2020650}},
{{-0.2908545}},
{{-0.2742055}},
{{0.7043796}},
{{-0.0064589}},
{{-0.2631666}},
{{0.3438170}},
{{0.0058706}},
{{-0.4761563}},
{{-0.3332438}},
{{0.0084731}},
{{-0.5179980}},
{{0.3328623}},
{{0.1768445}},
{{-0.0122940}}},
{{{0.6370454}},
{{0.8106927}},
{{-0.1226313}},
{{0.0462094}},
{{1.4219186}},
{{-0.0140950}},
{{-0.0955937}},
{{-0.4886097}},
{{-0.2862424}},
{{0.2913730}},
{{-0.5482407}},
{{0.0622987}},
{{0.2675221}},
{{0.1232265}},
{{0.5527512}},
{{0.7266023}},
{{-0.3279852}},
{{0.3120639}},
{{-0.4526491}},
{{0.4434342}},
{{-0.3860777}},
{{-0.2443616}},
{{-0.5998832}},
{{0.2113979}},
{{-0.1318422}},
{{-0.0703971}},
{{0.2723121}},
{{-0.5417495}},
{{0.4517765}},
{{0.4537343}},
{{-0.9960678}},
{{0.1426146}}},
{{{0.3348565}},
{{-0.2648670}},
{{0.9345455}},
{{-0.3998230}},
{{0.7956841}},
{{1.0539147}},
{{-0.9166442}},
{{1.2378935}},
{{-0.4910393}},
{{-0.2690914}},
{{0.1681149}},
{{0.9035593}},
{{-1.2818649}},
{{-0.4642964}},
{{0.2746686}},
{{-0.9081381}},
{{0.6841104}},
{{-0.0275344}},
{{0.3641048}},
{{0.4061724}},
{{0.4232963}},
{{0.3443080}},
{{0.6762004}},
{{0.8753449}},
{{-0.1053187}},
{{-0.0869725}},
{{0.1021991}},
{{-0.3761814}},
{{0.0897911}},
{{0.2773750}},
{{0.6740797}},
{{-0.2047218}}},
{{{0.5545737}},
{{-0.2084614}},
{{-0.4364351}},
{{0.1028813}},
{{-0.1527455}},
{{0.4235204}},
{{0.4301738}},
{{0.2411627}},
{{0.5843406}},
{{0.4899898}},
{{0.7200022}},
{{-0.1532693}},
{{-0.2067017}},
{{0.7957085}},
{{-0.6723519}},
{{-0.5026977}},
{{-0.3370752}},
{{0.6730947}},
{{0.1126361}},
{{0.4617956}},
{{0.6761340}},
{{0.2308017}},
{{0.0632150}},
{{-0.5729506}},
{{0.8604392}},
{{-0.5397701}},
{{-0.4709221}},
{{0.3762124}},
{{0.4172771}},
{{-0.0166479}},
{{0.0653189}},
{{-0.5982439}}},
{{{0.4006254}},
{{0.2194208}},
{{0.2951005}},
{{0.0031231}},
{{0.2447884}},
{{0.2089586}},
{{0.0002461}},
{{0.6470482}},
{{0.1409689}},
{{0.2190993}},
{{0.4843121}},
{{0.5730163}},
{{-0.0186282}},
{{-0.0235032}},
{{0.4403912}},
{{-0.0105260}},
{{-0.3023887}},
{{-0.4120994}},
{{-0.0975690}},
{{0.1717059}},
{{-0.1111480}},
{{-0.7035026}},
{{-0.5596448}},
{{-0.2497274}},
{{0.1258748}},
{{0.3768816}},
{{0.2877992}},
{{0.4859673}},
{{-0.6144980}},
{{0.8348261}},
{{-0.7828270}},
{{0.0786493}}},
{{{-0.4542602}},
{{-0.4926222}},
{{0.6265407}},
{{-0.1396667}},
{{-0.3965148}},
{{-0.2084870}},
{{-0.3207486}},
{{1.6752859}},
{{-0.1762320}},
{{-0.2669315}},
{{-0.2428904}},
{{-0.3414969}},
{{-0.2482590}},
{{-0.4970994}},
{{0.5741944}},
{{-0.2436017}},
{{-0.2464409}},
{{0.2249368}},
{{-0.3730907}},
{{0.8745573}},
{{-0.5953403}},
{{-0.2962514}},
{{-0.2708096}},
{{-0.2234163}},
{{0.2040282}},
{{0.2544295}},
{{0.5467032}},
{{-0.4246611}},
{{0.4860548}},
{{-0.1524113}},
{{0.0660677}},
{{-0.1578473}}},
{{{-0.1493754}},
{{-0.1051309}},
{{-0.1158967}},
{{-0.4066463}},
{{0.0161621}},
{{-0.5241376}},
{{-0.2139088}},
{{0.1340002}},
{{0.2996548}},
{{-0.1282501}},
{{-0.2118743}},
{{0.1503233}},
{{0.1460385}},
{{0.2787396}},
{{0.5798575}},
{{-0.4575726}},
{{0.4516183}},
{{0.4981143}},
{{0.2820228}},
{{-0.1460532}},
{{-0.2363981}},
{{0.2276851}},
{{0.5592325}},
{{-1.0133388}},
{{0.0578079}},
{{-0.2174810}},
{{0.3502037}},
{{0.5579368}},
{{0.9483551}},
{{-0.2320044}},
{{-0.9329197}},
{{0.4054594}}},
{{{0.4062209}},
{{0.2164106}},
{{-0.3341602}},
{{1.3295586}},
{{0.3787360}},
{{0.9622688}},
{{0.5424977}},
{{-0.2297501}},
{{-0.3762501}},
{{-0.8565235}},
{{-1.0345016}},
{{0.5688215}},
{{-0.0260784}},
{{-0.2860456}},
{{0.7875505}},
{{-0.4263089}},
{{0.5547176}},
{{0.1916627}},
{{-0.8549502}},
{{-0.6700296}},
{{0.5831202}},
{{0.1503533}},
{{1.1746813}},
{{-0.3731971}},
{{-0.4181222}},
{{0.1764372}},
{{-0.1058165}},
{{-0.6639486}},
{{0.9045224}},
{{0.3881037}},
{{0.3784114}},
{{-0.7626263}}},
{{{-0.6747224}},
{{-0.5672379}},
{{0.2977084}},
{{-0.8181159}},
{{-0.1532350}},
{{0.0101477}},
{{-0.4305853}},
{{-0.5820264}},
{{-0.6612640}},
{{-0.3859843}},
{{0.7884142}},
{{0.4879782}},
{{0.7433341}},
{{-0.7273827}},
{{0.7759488}},
{{0.5061250}},
{{0.3627241}},
{{0.4997924}},
{{-0.0363043}},
{{-0.1019782}},
{{0.9678096}},
{{0.0899313}},
{{0.5642455}},
{{-0.0373357}},
{{0.4937060}},
{{-0.3744181}},
{{-0.2699463}},
{{0.3566399}},
{{0.3424266}},
{{-0.0615095}},
{{-0.5621834}},
{{0.1737369}}},
{{{0.6717341}},
{{-1.0180526}},
{{-1.1129000}},
{{0.1960230}},
{{-0.7052941}},
{{0.8752757}},
{{0.4234237}},
{{0.5404539}},
{{-0.9271904}},
{{-0.8559029}},
{{0.8947403}},
{{0.6668016}},
{{0.1851628}},
{{0.0820539}},
{{0.2309824}},
{{-0.0989787}},
{{0.4618490}},
{{-0.0832451}},
{{0.5961971}},
{{-0.6105640}},
{{-0.2853552}},
{{-0.8173077}},
{{-0.3116657}},
{{0.2721254}},
{{0.3491186}},
{{-1.0688567}},
{{-0.3654377}},
{{0.1645259}},
{{0.0318991}},
{{0.6730093}},
{{0.4377222}},
{{0.7482461}}},
{{{-0.1623218}},
{{-0.5292355}},
{{0.0108979}},
{{0.4624689}},
{{-0.6908054}},
{{1.0211852}},
{{-0.5696490}},
{{-0.7086139}},
{{0.4971647}},
{{-0.5450971}},
{{-0.2700946}},
{{-0.0428615}},
{{-0.9234983}},
{{0.4457483}},
{{0.6229412}},
{{0.6318400}},
{{-0.2513756}},
{{-0.6422010}},
{{-0.9383864}},
{{0.8212565}},
{{-0.6940750}},
{{0.0994422}},
{{1.1488825}},
{{0.4368499}},
{{-0.8617564}},
{{-0.0581649}},
{{0.6454450}},
{{-0.1810955}},
{{-0.4095621}},
{{-0.3174584}},
{{-0.4318627}},
{{-0.4644329}}},
{{{0.0793660}},
{{-0.7881039}},
{{0.4906156}},
{{0.2532890}},
{{-0.2101077}},
{{-0.1286241}},
{{-0.0110539}},
{{-0.3792387}},
{{0.7171566}},
{{0.3664591}},
{{0.1739712}},
{{-0.6837864}},
{{0.8436312}},
{{-0.3999172}},
{{0.5978873}},
{{-0.5762919}},
{{0.3899415}},
{{0.3278548}},
{{0.3381417}},
{{-0.4951922}},
{{-0.1481829}},
{{-0.4757964}},
{{0.5116293}},
{{-0.5976961}},
{{0.6063287}},
{{-0.3439419}},
{{0.6535849}},
{{-0.0429897}},
{{-0.0609485}},
{{-0.7874411}},
{{0.7957055}},
{{-0.5213684}}},
{{{0.2934184}},
{{-0.0254722}},
{{0.2890179}},
{{-0.5323343}},
{{0.3657789}},
{{0.2323381}},
{{0.3168288}},
{{0.9165452}},
{{0.2273797}},
{{0.2654898}},
{{-0.5488667}},
{{-0.5020534}},
{{0.2969964}},
{{-0.2687127}},
{{-0.0107893}},
{{-0.5242460}},
{{-0.5504098}},
{{0.1171171}},
{{0.2484725}},
{{0.1544808}},
{{-0.5219743}},
{{0.7554904}},
{{-0.2954792}},
{{0.0297493}},
{{0.2338016}},
{{0.0432114}},
{{0.6088125}},
{{-0.4697168}},
{{-0.0579509}},
{{0.2658333}},
{{0.7825938}},
{{0.0095402}}},
{{{-0.6233130}},
{{-0.3643475}},
{{-0.9904042}},
{{-0.4026226}},
{{-0.5289288}},
{{-1.2033871}},
{{-1.0870413}},
{{-0.7377131}},
{{-0.1860402}},
{{0.9791253}},
{{-0.2270338}},
{{-0.1639394}},
{{0.9333359}},
{{0.0655564}},
{{0.4440663}},
{{-0.2069888}},
{{0.6984481}},
{{-0.5018492}},
{{0.9750304}},
{{0.6285670}},
{{-0.3869294}},
{{-0.4282225}},
{{-0.8548084}},
{{0.6000557}},
{{-0.1031496}},
{{-0.1980902}},
{{0.1079476}},
{{-0.5672177}},
{{0.8933700}},
{{-0.0734442}},
{{-0.1725618}},
{{-0.7963452}}},
{{{-0.3298208}},
{{0.1483409}},
{{0.2886506}},
{{-0.1892202}},
{{-0.5064847}},
{{0.1264556}},
{{-0.2208872}},
{{-0.6401117}},
{{-0.1874077}},
{{-0.7114331}},
{{-0.0909262}},
{{0.0839261}},
{{-0.3987561}},
{{-0.5989881}},
{{-0.1158983}},
{{0.8469620}},
{{-0.9450312}},
{{-0.3953227}},
{{0.3275554}},
{{-0.5308162}},
{{0.2875888}},
{{0.0174541}},
{{0.7982497}},
{{0.3894014}},
{{-0.4384858}},
{{0.2529370}},
{{-0.3165711}},
{{0.2816303}},
{{-0.2992660}},
{{-0.1020315}},
{{-0.0294400}},
{{-0.5820144}}},
{{{-0.3053619}},
{{0.1681926}},
{{0.0113872}},
{{-0.2147592}},
{{-0.2228398}},
{{-0.2667018}},
{{0.0313565}},
{{-0.4509719}},
{{0.0441157}},
{{-0.0826147}},
{{-0.0353253}},
{{0.2627328}},
{{-0.6826968}},
{{0.1393331}},
{{-0.2893986}},
{{0.3705727}},
{{0.3014756}},
{{-0.3887733}},
{{0.4768473}},
{{-0.8740662}},
{{0.3377687}},
{{-0.4375301}},
{{0.5869275}},
{{-0.3780644}},
{{-0.1666648}},
{{0.8215624}},
{{-0.0099856}},
{{-0.2485504}},
{{-0.1087575}},
{{0.1211448}},
{{-0.3778943}},
{{0.0201677}}},
{{{-0.4918521}},
{{0.9871000}},
{{0.7455540}},
{{-0.0888545}},
{{0.7946945}},
{{0.5404384}},
{{-0.2932439}},
{{0.7262825}},
{{0.2256167}},
{{-0.6937019}},
{{-1.1007957}},
{{-0.6104441}},
{{0.6503142}},
{{-0.0362345}},
{{-0.6685240}},
{{0.8535360}},
{{0.7450787}},
{{-0.8105471}},
{{0.5279872}},
{{-0.6954614}},
{{-0.7112264}},
{{0.1606245}},
{{-0.6239198}},
{{-0.7267601}},
{{-0.7282890}},
{{-0.6086779}},
{{-1.1256889}},
{{0.9235853}},
{{-0.6383079}},
{{-0.2754905}},
{{-0.2472791}},
{{0.0927787}}},
{{{0.7641112}},
{{-0.7634697}},
{{0.3300729}},
{{1.1439674}},
{{0.1696708}},
{{-0.4416899}},
{{-0.3964348}},
{{0.4265273}},
{{-0.2408687}},
{{0.6743212}},
{{-0.3422489}},
{{-0.2262640}},
{{0.4939279}},
{{0.3748021}},
{{0.8662478}},
{{0.7464280}},
{{-0.4134919}},
{{-0.9064394}},
{{0.2385155}},
{{-0.6349324}},
{{0.9374251}},
{{-0.5415633}},
{{-0.3059516}},
{{0.6806153}},
{{-0.3792588}},
{{-0.3473209}},
{{-0.5998030}},
{{-0.5825505}},
{{0.4363714}},
{{-0.4349317}},
{{0.2267372}},
{{-0.2949903}}},
{{{0.3936330}},
{{-0.3073416}},
{{-0.0563328}},
{{0.5165465}},
{{-0.3940874}},
{{-0.6252486}},
{{-0.6713938}},
{{-0.1880672}},
{{-0.5695446}},
{{-0.1861531}},
{{0.3723410}},
{{0.5250372}},
{{-0.3029909}},
{{0.4994861}},
{{0.6775105}},
{{0.4561770}},
{{-0.4404999}},
{{-0.5155985}},
{{0.0682935}},
{{0.2838312}},
{{-0.3976102}},
{{0.1845811}},
{{0.6641699}},
{{-0.0164586}},
{{0.2215075}},
{{0.7705318}},
{{0.0147088}},
{{-0.8269022}},
{{-0.0450602}},
{{0.4882147}},
{{0.0921857}},
{{0.2258252}}},
{{{-0.0770644}},
{{0.2550182}},
{{0.4681377}},
{{0.7936544}},
{{-0.4176148}},
{{-0.8635664}},
{{-0.5023077}},
{{0.7158371}},
{{-0.0496310}},
{{0.0488699}},
{{0.4172984}},
{{-0.1214719}},
{{0.0914114}},
{{-0.1724688}},
{{0.4941368}},
{{-0.0027037}},
{{0.6366372}},
{{-0.0604756}},
{{-0.1860149}},
{{0.4059694}},
{{0.8296173}},
{{0.2177439}},
{{-0.6466090}},
{{0.6001750}},
{{0.9234253}},
{{-0.2068308}},
{{0.1672074}},
{{-0.2984684}},
{{0.2591276}},
{{0.4686414}},
{{-0.7290538}},
{{0.4083502}}},
{{{0.1071659}},
{{0.2196008}},
{{0.8292284}},
{{-0.6184310}},
{{-0.0706055}},
{{0.5115142}},
{{0.1797689}},
{{0.0301708}},
{{-0.2672144}},
{{0.1959711}},
{{-0.2652754}},
{{0.1849783}},
{{-0.1584150}},
{{-0.6418244}},
{{-0.2274615}},
{{-0.4833717}},
{{0.1893218}},
{{-1.2456138}},
{{0.4833395}},
{{-0.1884252}},
{{-0.4174834}},
{{-0.0191546}},
{{0.3156893}},
{{-0.6677788}},
{{-0.6628894}},
{{-0.2587280}},
{{0.6547974}},
{{-0.2912419}},
{{-0.0346063}},
{{0.8479193}},
{{0.2078715}},
{{0.4937711}}},
{{{-0.5727670}},
{{0.6793639}},
{{-0.3731190}},
{{-0.6166462}},
{{0.5081698}},
{{0.5347516}},
{{0.8123924}},
{{-0.7991979}},
{{0.6479540}},
{{-0.2232929}},
{{-0.7133658}},
{{-0.1178370}},
{{0.5954615}},
{{0.1277898}},
{{0.3389242}},
{{0.5226142}},
{{-0.2914740}},
{{-0.1061517}},
{{0.1423653}},
{{0.8568729}},
{{0.4092349}},
{{0.1154558}},
{{0.0476696}},
{{0.1810294}},
{{0.5792370}},
{{0.4300288}},
{{0.4420495}},
{{-0.5066084}},
{{-0.2252923}},
{{0.4399247}},
{{-0.4581504}},
{{-0.2984346}}}};

// stage2.1_pointwise_bias  shape=(32,)
static const float stage2_1_pointwise_bias[32] = 
{-0.1482277, 1.0580149, -0.5090083, -0.5918065, 0.2962793, 0.1538138, 0.3427671, 0.0970131, 0.2904294, 0.2367001, -0.4673368, 0.6237150, -0.4575292, -0.0969421, -0.6518849, -0.5525780, 0.1307416, 0.6368465, -0.1829118, -0.1875152, 0.6362870, -0.5046387, -0.2839144, -0.6222387, -0.0359722, -0.2364092, 0.9152696, -0.6014124, -0.5718247, -0.2678362, 0.2508253, 0.1922129};

// stage3.0_depthwise_weight  shape=(32, 1, 3, 3)
static const float stage3_0_depthwise_weight[32][1][3][3] = 
{{{{0.2319216, 0.2078212, -0.2260431},
{0.2365084, 0.0850226, 0.0460859},
{0.1237523, 0.3118595, -0.0939777}}},
{{{-0.1653418, -0.2567919, 0.3219937},
{-0.0946483, -0.2008653, 0.4121912},
{-0.3045570, 0.1780098, 0.2387495}}},
{{{-0.1410512, -0.0495134, -0.0464627},
{-0.2976827, 0.1527610, 0.1372053},
{0.3036420, 0.2024868, -0.1720827}}},
{{{0.1341755, -0.1541820, 0.2517663},
{0.1140878, 0.2653410, 0.0825388},
{0.1023768, -0.1930538, -0.1829788}}},
{{{-0.3171895, 0.0974162, 0.0298972},
{-0.3218532, -0.1451260, -0.1711898},
{-0.1499999, 0.2945432, -0.0901791}}},
{{{0.2256851, -0.0570518, 0.2353127},
{-0.1119698, 0.2444801, 0.2246262},
{0.2000273, 0.2836345, 0.0303273}}},
{{{0.2356894, 0.2416619, -0.1573061},
{0.3340023, -0.1702650, 0.1261883},
{0.1928933, 0.0344525, 0.0392627}}},
{{{0.2213575, 0.0011790, -0.0373336},
{-0.0200831, 0.3178275, -0.0230557},
{-0.0439955, -0.2314773, -0.0025669}}},
{{{-0.0939613, 0.0695107, -0.0301670},
{-0.1929400, 0.1652036, 0.3600281},
{0.1305581, -0.1231067, 0.1836153}}},
{{{0.2424165, 0.3801695, -0.1116667},
{-0.0125134, 0.0144507, -0.1514951},
{0.0867538, -0.3175829, -0.1503711}}},
{{{-0.2338322, -0.0008938, -0.2524828},
{-0.3147483, -0.1817189, -0.0011649},
{0.0828903, 0.2282603, -0.1644942}}},
{{{-0.1123263, 0.0769645, 0.3060384},
{-0.1525494, 0.2252540, 0.3143893},
{-0.1677429, -0.1033263, 0.0277807}}},
{{{-0.3567498, 0.2429469, -0.3050765},
{-0.1361836, 0.0607169, -0.0426962},
{-0.0164262, -0.2213209, -0.1827506}}},
{{{-0.2629002, 0.0118047, 0.2579574},
{-0.2799714, 0.1165625, -0.1905224},
{0.1793560, 0.2124933, -0.3243897}}},
{{{0.1467737, 0.1998491, 0.0963166},
{-0.0579068, -0.1909486, 0.2878732},
{0.0906581, 0.2845458, -0.0096926}}},
{{{0.3118169, 0.0521900, 0.0449653},
{-0.1509630, 0.0970538, -0.3839252},
{0.0340916, 0.1300058, -0.1040408}}},
{{{0.2858685, 0.0970121, 0.0932167},
{0.3546500, -0.1172888, 0.1416063},
{0.2654025, -0.1064058, 0.0879504}}},
{{{-0.2537913, -0.1554773, -0.1719350},
{-0.0006570, -0.0141583, 0.0919814},
{0.1097315, 0.3536493, 0.0605960}}},
{{{-0.0771542, 0.0161345, 0.0101362},
{0.1270143, 0.2833737, 0.1630644},
{0.1094080, 0.0188685, -0.2165227}}},
{{{-0.0288387, -0.1169156, 0.2049476},
{0.3094189, -0.0364135, 0.2495812},
{-0.0218428, 0.1558987, -0.0877957}}},
{{{0.0168027, -0.1457500, -0.2666444},
{0.1301806, 0.2678420, -0.0699956},
{0.2760754, 0.0255710, -0.2042632}}},
{{{-0.2669233, -0.1289798, 0.0187593},
{0.1750796, -0.2768611, 0.2413453},
{0.2113751, -0.0464574, 0.0908317}}},
{{{0.3207078, -0.1248550, -0.1872525},
{-0.1802430, -0.2836727, 0.1544864},
{0.1961917, 0.0082811, -0.3540074}}},
{{{-0.0525571, 0.1169857, -0.2124638},
{0.2721465, 0.2668307, -0.2426653},
{0.1346382, 0.0562880, -0.2182443}}},
{{{-0.0186706, -0.0918510, -0.2243376},
{0.0369792, 0.2262975, -0.2876734},
{-0.0258733, 0.1041173, 0.1771174}}},
{{{0.2646758, -0.1557910, 0.1721389},
{-0.0674474, 0.2641139, 0.1855891},
{0.0786978, 0.2028948, -0.2763479}}},
{{{0.0961463, 0.1818987, 0.2427167},
{-0.2963797, -0.0922944, -0.1733404},
{0.1636262, 0.2102756, 0.0170811}}},
{{{-0.2147916, 0.1100129, 0.0047402},
{0.1222227, 0.2530173, -0.0600591},
{-0.2218306, -0.1245693, -0.2724974}}},
{{{-0.0967735, -0.2096009, 0.2156426},
{0.2391339, 0.2455745, -0.1086646},
{0.2520778, -0.2728521, -0.0098020}}},
{{{-0.1941084, -0.2923793, -0.2624595},
{0.0016424, -0.2274613, -0.2893987},
{-0.0429808, 0.2729950, 0.0941547}}},
{{{0.2780019, -0.1839039, -0.1355326},
{0.3323234, 0.3130392, -0.2550081},
{0.1366241, 0.2863175, -0.0745108}}},
{{{-0.2349904, 0.3048013, 0.1821684},
{0.1019328, 0.0858690, -0.1550118},
{-0.2175805, 0.0370944, 0.2398041}}}};

// stage3.0_pointwise_weight  shape=(64, 32, 1, 1)
static const float stage3_0_pointwise_weight[64][32][1][1] = 
{{{{-0.2496773}},
{{-0.9451402}},
{{0.0887329}},
{{-0.5393081}},
{{0.5625107}},
{{-0.0486201}},
{{-0.4278077}},
{{-0.1984815}},
{{0.0376150}},
{{-0.6099820}},
{{-0.7046482}},
{{0.2879376}},
{{-0.4515231}},
{{0.4950244}},
{{-0.3082913}},
{{0.1830840}},
{{-0.4652792}},
{{0.0122929}},
{{-0.0522927}},
{{0.6480549}},
{{-0.2588686}},
{{-0.2378013}},
{{0.5524686}},
{{0.2016255}},
{{-0.1327254}},
{{-0.4360183}},
{{-0.3203492}},
{{-0.0601898}},
{{-0.2742040}},
{{-0.0216731}},
{{1.0942831}},
{{-0.0222501}}},
{{{0.3281910}},
{{-0.4862132}},
{{0.3240688}},
{{-0.3080154}},
{{0.6770703}},
{{0.2946739}},
{{-0.0671576}},
{{-0.2553601}},
{{0.2025956}},
{{0.1297044}},
{{0.6277208}},
{{-0.1967859}},
{{-0.8014210}},
{{-0.4789425}},
{{-0.2582788}},
{{0.1911794}},
{{-0.3063151}},
{{-0.4250604}},
{{-0.2183804}},
{{0.6359370}},
{{-0.4391384}},
{{0.0776570}},
{{0.2322471}},
{{0.0077373}},
{{-0.3436775}},
{{-0.0042068}},
{{0.4770461}},
{{0.4216778}},
{{-0.1276397}},
{{0.0635696}},
{{-0.3757104}},
{{-0.4748483}}},
{{{0.8022313}},
{{-0.6400252}},
{{0.6445430}},
{{-0.2679355}},
{{-0.3292485}},
{{-0.9518123}},
{{0.3409663}},
{{0.3198633}},
{{-0.2070294}},
{{0.7416642}},
{{0.3092188}},
{{0.4114040}},
{{0.4173704}},
{{1.1779294}},
{{-0.3700306}},
{{0.6007271}},
{{0.4384259}},
{{0.0192737}},
{{-0.3818561}},
{{-0.7001677}},
{{-0.2083075}},
{{-0.9804755}},
{{-0.7235793}},
{{-0.1765887}},
{{0.7369947}},
{{-0.3307948}},
{{0.9091531}},
{{-0.2617677}},
{{-0.3681478}},
{{-0.5646409}},
{{-0.1559961}},
{{-0.1256374}}},
{{{-0.0014086}},
{{-0.4223488}},
{{-0.2465937}},
{{-0.4115782}},
{{-0.1009644}},
{{-0.5178951}},
{{0.2172085}},
{{0.1978636}},
{{-0.4906270}},
{{-0.4090541}},
{{0.4234431}},
{{-0.1438862}},
{{-0.1459698}},
{{0.4894041}},
{{-0.4376411}},
{{-0.1304607}},
{{-0.5333983}},
{{-0.4235197}},
{{-0.4576679}},
{{-0.0770244}},
{{-0.1188399}},
{{-0.2143475}},
{{-0.3543772}},
{{-0.2837530}},
{{0.0272403}},
{{0.2897095}},
{{-0.1384895}},
{{0.1735600}},
{{0.4504108}},
{{-0.1841040}},
{{0.6317418}},
{{0.0542981}}},
{{{0.3480702}},
{{0.0708618}},
{{-0.3155360}},
{{0.4266725}},
{{0.0111794}},
{{-0.1063884}},
{{0.0965407}},
{{0.3140250}},
{{-0.4747254}},
{{-0.2825349}},
{{0.4470032}},
{{0.0033762}},
{{0.1000684}},
{{0.0116949}},
{{0.4993609}},
{{0.3795064}},
{{0.0334567}},
{{-0.2754789}},
{{0.1492532}},
{{0.2299179}},
{{0.2725639}},
{{0.2705512}},
{{-0.0139233}},
{{-0.3664797}},
{{-0.4189900}},
{{0.3893203}},
{{0.1987521}},
{{0.3670222}},
{{0.0499648}},
{{0.4203241}},
{{0.4158034}},
{{-0.0539091}}},
{{{-0.3136294}},
{{0.6910130}},
{{0.2580579}},
{{0.3751577}},
{{0.2338626}},
{{0.0090527}},
{{0.3667482}},
{{-0.4594615}},
{{1.0418395}},
{{0.6396181}},
{{-0.0370707}},
{{0.1842101}},
{{0.2889751}},
{{-0.6633390}},
{{0.0882694}},
{{0.2030722}},
{{0.0931472}},
{{-0.0387391}},
{{-0.5325206}},
{{0.0302408}},
{{-0.2902472}},
{{0.4708878}},
{{-0.2383531}},
{{0.6888273}},
{{-0.1654218}},
{{0.2079868}},
{{0.0825571}},
{{0.1235997}},
{{-0.5075471}},
{{-0.4834540}},
{{0.6870634}},
{{-0.3694346}}},
{{{-0.1829521}},
{{0.6483178}},
{{-0.0372275}},
{{-0.4184861}},
{{-0.5130146}},
{{-0.6228825}},
{{0.4992931}},
{{-0.4927816}},
{{0.3995544}},
{{0.0610617}},
{{0.6067522}},
{{-0.0141579}},
{{-0.0271360}},
{{-0.0263683}},
{{0.5410601}},
{{0.6911099}},
{{0.2209484}},
{{-0.0264427}},
{{-0.2020023}},
{{0.2260705}},
{{0.6388980}},
{{0.4492980}},
{{0.5846857}},
{{-0.5334895}},
{{0.6010347}},
{{0.0988270}},
{{-0.9149662}},
{{-0.5570005}},
{{0.7242942}},
{{0.3503833}},
{{0.3309150}},
{{0.4786155}}},
{{{0.7255672}},
{{0.1302852}},
{{0.8145067}},
{{-0.1369232}},
{{0.0977398}},
{{0.2356461}},
{{0.3400838}},
{{-0.1160962}},
{{-0.4513638}},
{{-0.6178594}},
{{0.5873360}},
{{1.5058534}},
{{-0.2853842}},
{{0.3728256}},
{{-0.2475889}},
{{1.2988892}},
{{-0.0308112}},
{{0.3022365}},
{{-0.1191946}},
{{0.0353562}},
{{0.8890273}},
{{-0.6848308}},
{{0.1445328}},
{{0.8621714}},
{{0.2405841}},
{{0.3150279}},
{{0.5650533}},
{{-0.7518978}},
{{0.0903746}},
{{-0.3439285}},
{{-0.3715083}},
{{-0.4464593}}},
{{{0.6217727}},
{{0.1328237}},
{{0.3252238}},
{{0.6663654}},
{{0.2481627}},
{{-0.6049998}},
{{-0.0828590}},
{{-0.1105325}},
{{0.3657971}},
{{-0.5034921}},
{{0.3361807}},
{{-0.2386689}},
{{0.3296768}},
{{-0.2151740}},
{{-0.6756690}},
{{-0.3568923}},
{{-0.6671839}},
{{0.4294884}},
{{-0.1384297}},
{{0.4645914}},
{{-0.5228146}},
{{-0.3435559}},
{{0.0250210}},
{{-0.1682636}},
{{-0.3276515}},
{{-0.4327534}},
{{0.3701107}},
{{0.4179759}},
{{0.0315133}},
{{0.3829160}},
{{-0.0165320}},
{{-0.7743104}}},
{{{0.2109710}},
{{-1.2961856}},
{{-0.1876346}},
{{0.0401710}},
{{0.0763754}},
{{0.2209155}},
{{0.2874921}},
{{0.3689853}},
{{-0.4635044}},
{{-0.6999254}},
{{-0.1790292}},
{{0.2397205}},
{{0.1715436}},
{{0.4248712}},
{{0.5194612}},
{{0.2082722}},
{{0.1603589}},
{{-0.0900267}},
{{-0.0261638}},
{{-0.2808664}},
{{0.3977390}},
{{0.3754193}},
{{0.1789545}},
{{-0.8312295}},
{{0.1683943}},
{{-0.3355293}},
{{-0.0599978}},
{{0.2630409}},
{{-0.4114192}},
{{0.4717266}},
{{0.2381095}},
{{0.4231069}}},
{{{-0.1769192}},
{{-0.2641841}},
{{-0.6755813}},
{{-0.0047078}},
{{0.7332056}},
{{-0.3858262}},
{{0.6483434}},
{{0.5751472}},
{{0.2219801}},
{{0.1317283}},
{{-0.2817694}},
{{0.6510321}},
{{-0.7271346}},
{{0.5892826}},
{{-0.3532549}},
{{-0.7209769}},
{{0.1814228}},
{{0.6939814}},
{{-0.5517379}},
{{0.6130198}},
{{-0.7568712}},
{{0.2732690}},
{{0.1516235}},
{{-0.1451911}},
{{0.2867445}},
{{-0.2115805}},
{{-1.1344686}},
{{-0.2686224}},
{{-0.1049523}},
{{-0.7007975}},
{{0.1199330}},
{{0.0498796}}},
{{{0.5135304}},
{{0.5359904}},
{{-0.5326640}},
{{-0.2566564}},
{{0.0062982}},
{{0.4591710}},
{{0.3328522}},
{{0.3998373}},
{{-0.2288404}},
{{0.1720646}},
{{-0.8675742}},
{{0.0747878}},
{{-0.3224486}},
{{0.6047367}},
{{-0.8192867}},
{{0.7778650}},
{{-0.4715797}},
{{0.1429020}},
{{-0.2320870}},
{{0.6334721}},
{{0.6052562}},
{{-0.1339678}},
{{0.6641560}},
{{0.1120766}},
{{0.7613660}},
{{0.2759138}},
{{-0.0003407}},
{{0.9510707}},
{{-0.5275600}},
{{-0.0014654}},
{{-0.5767531}},
{{0.5319767}}},
{{{0.8215027}},
{{0.6293224}},
{{-0.0892465}},
{{0.2537321}},
{{0.8721960}},
{{0.3904313}},
{{0.5840124}},
{{-0.1799065}},
{{0.8799036}},
{{-0.0214591}},
{{0.8613322}},
{{0.0513377}},
{{-0.0484469}},
{{0.3078253}},
{{-0.1302286}},
{{-0.2972992}},
{{0.4679779}},
{{-0.7068105}},
{{-0.7832955}},
{{-0.7569315}},
{{0.3815213}},
{{0.3052722}},
{{0.1112714}},
{{-0.2629921}},
{{0.1573142}},
{{-0.9567019}},
{{0.4396898}},
{{0.3367188}},
{{-1.0093250}},
{{-0.0488775}},
{{-0.0530703}},
{{-0.0490546}}},
{{{-0.1301641}},
{{0.9824159}},
{{-0.6788364}},
{{0.3727419}},
{{-0.6096776}},
{{0.3098250}},
{{-0.3450550}},
{{-0.7602606}},
{{0.7023756}},
{{-0.6954218}},
{{-0.0581731}},
{{0.5153867}},
{{0.6792514}},
{{-0.2560388}},
{{-0.6220185}},
{{-0.5549497}},
{{-0.6286311}},
{{0.0540526}},
{{-0.5407738}},
{{-0.5035018}},
{{-0.0130253}},
{{-0.5167136}},
{{0.8317015}},
{{0.0828724}},
{{-0.3623589}},
{{0.4133593}},
{{-0.5265138}},
{{0.5278183}},
{{-0.6111884}},
{{0.4475069}},
{{-0.1543483}},
{{0.2113918}}},
{{{0.0084719}},
{{-0.6709915}},
{{-0.1861449}},
{{-0.1993239}},
{{0.5967669}},
{{0.0079694}},
{{0.5680243}},
{{0.2134971}},
{{0.5358900}},
{{0.1878200}},
{{-0.2986839}},
{{0.3613434}},
{{-0.4096553}},
{{0.1633801}},
{{-0.0655894}},
{{0.2274396}},
{{-0.4058765}},
{{0.1137890}},
{{0.2207320}},
{{0.2262639}},
{{-0.0756626}},
{{0.0866896}},
{{-0.5244101}},
{{0.2982209}},
{{-0.5497795}},
{{0.3253474}},
{{-0.4455355}},
{{-0.0416642}},
{{0.0140815}},
{{0.1006839}},
{{0.0784907}},
{{0.2002253}}},
{{{-0.6096996}},
{{0.1576328}},
{{-0.3743984}},
{{0.1930348}},
{{0.2634500}},
{{-0.7379078}},
{{-0.1036310}},
{{-0.7311857}},
{{-0.1542757}},
{{1.0825018}},
{{-0.5480133}},
{{-0.7236574}},
{{0.2265786}},
{{-0.8240780}},
{{0.0839576}},
{{-0.1690219}},
{{-0.2898358}},
{{0.6346645}},
{{-0.5844550}},
{{0.3455867}},
{{0.6584969}},
{{-0.4170927}},
{{0.4439038}},
{{0.2384649}},
{{0.0992214}},
{{-0.7010383}},
{{0.2855932}},
{{-0.0396052}},
{{0.4019111}},
{{-0.8409835}},
{{0.8427038}},
{{0.6875585}}},
{{{0.4327652}},
{{-0.2320476}},
{{-0.4511251}},
{{0.5959825}},
{{0.6141637}},
{{-0.7624504}},
{{-0.0253882}},
{{-0.3661271}},
{{0.5559182}},
{{-0.6761140}},
{{-0.6612623}},
{{1.2812129}},
{{0.5545281}},
{{0.0094128}},
{{-0.4474285}},
{{-0.5390854}},
{{-0.0288469}},
{{0.6108925}},
{{-0.7081702}},
{{-0.7014475}},
{{0.6171907}},
{{-0.9419075}},
{{0.9491007}},
{{0.4835677}},
{{-0.0355098}},
{{-0.4244406}},
{{-0.0366582}},
{{-0.2100756}},
{{0.3445318}},
{{-0.1463780}},
{{0.3576698}},
{{0.0392387}}},
{{{0.1142428}},
{{-0.4184248}},
{{0.0433437}},
{{-0.1186297}},
{{-0.1441942}},
{{0.1649384}},
{{-0.4445175}},
{{-0.1387891}},
{{-0.3195283}},
{{0.7930108}},
{{0.1389574}},
{{-0.6610605}},
{{0.4597874}},
{{-0.2065314}},
{{0.2562200}},
{{0.6779799}},
{{-0.0502309}},
{{0.3581687}},
{{0.2183717}},
{{0.0163173}},
{{0.5271317}},
{{0.0017686}},
{{-0.5876726}},
{{-0.9078426}},
{{-0.0761347}},
{{-0.2268490}},
{{-0.7473339}},
{{0.4718975}},
{{0.3755732}},
{{0.9995553}},
{{0.6667427}},
{{-0.3330070}}},
{{{-0.3845280}},
{{-0.4308486}},
{{-0.1099019}},
{{0.3078626}},
{{-0.0801591}},
{{-0.4091639}},
{{0.1363799}},
{{-0.3717507}},
{{-0.5221794}},
{{0.5382146}},
{{0.3713306}},
{{0.4856201}},
{{-0.0204750}},
{{0.1942982}},
{{0.0127026}},
{{0.0344718}},
{{0.4575374}},
{{0.4130669}},
{{0.0411534}},
{{-0.5717164}},
{{-0.4786234}},
{{-0.3432768}},
{{0.2482061}},
{{-0.4932834}},
{{-0.2205673}},
{{-0.0214467}},
{{0.4022137}},
{{0.2517059}},
{{0.1002843}},
{{-0.3974806}},
{{-0.4282350}},
{{-0.2581311}}},
{{{0.4140522}},
{{0.4699866}},
{{-0.1502428}},
{{0.1131493}},
{{-0.5059875}},
{{0.1650867}},
{{-0.2167957}},
{{0.4969560}},
{{-0.5351043}},
{{-0.4935273}},
{{-0.1559070}},
{{0.4684046}},
{{-0.2802785}},
{{-0.1936222}},
{{0.1232336}},
{{0.2689949}},
{{-0.5957190}},
{{-0.1510367}},
{{0.6433356}},
{{-0.3828469}},
{{0.0165778}},
{{-0.9045469}},
{{0.3890163}},
{{0.5164154}},
{{-0.0008002}},
{{-0.0407873}},
{{0.6881595}},
{{0.0564634}},
{{-0.7740967}},
{{-0.4379374}},
{{0.5446677}},
{{0.0172011}}},
{{{0.2361741}},
{{-0.4443410}},
{{-0.0626477}},
{{0.3234058}},
{{-0.0275529}},
{{-0.0449299}},
{{-0.3012235}},
{{-0.1671014}},
{{0.3143283}},
{{-0.1812427}},
{{0.4213515}},
{{0.1879442}},
{{-0.4848786}},
{{0.2815128}},
{{-0.0856193}},
{{-0.5383182}},
{{-0.4417257}},
{{-0.0728106}},
{{-0.0956048}},
{{0.1104121}},
{{-0.0411003}},
{{0.2620774}},
{{-0.0405525}},
{{0.3259058}},
{{-0.2138857}},
{{0.3974561}},
{{-0.0447116}},
{{0.4284470}},
{{-0.0752104}},
{{0.7529735}},
{{0.1703924}},
{{-0.2763343}}},
{{{0.1178428}},
{{0.1922527}},
{{0.1199927}},
{{-0.1517586}},
{{0.5563260}},
{{-0.6746410}},
{{0.7749407}},
{{-0.0258394}},
{{-0.6234422}},
{{-0.4714897}},
{{-0.3795314}},
{{-0.2042423}},
{{-0.4251361}},
{{0.2797108}},
{{0.5774524}},
{{0.5024692}},
{{0.1202327}},
{{-0.1485482}},
{{-0.2833675}},
{{-0.2421616}},
{{0.3693516}},
{{0.1791764}},
{{0.4141543}},
{{-0.1210155}},
{{-0.6124139}},
{{0.4102141}},
{{0.0357518}},
{{-0.6856000}},
{{-0.0520801}},
{{-0.5781219}},
{{0.4772326}},
{{-0.4188600}}},
{{{-0.4572361}},
{{-0.2202901}},
{{-0.6319301}},
{{-0.9159137}},
{{-0.5756621}},
{{-0.4698492}},
{{0.2913493}},
{{1.0469853}},
{{-0.8643277}},
{{0.1094228}},
{{-0.1255971}},
{{-0.3092524}},
{{-0.2953750}},
{{0.4370819}},
{{0.9023893}},
{{-0.4274184}},
{{0.9785865}},
{{0.5257215}},
{{0.5670815}},
{{0.2828131}},
{{0.3058975}},
{{-0.3850505}},
{{-0.2869586}},
{{-0.0623988}},
{{0.8194631}},
{{0.2013003}},
{{-0.6174639}},
{{0.8017046}},
{{-0.4629378}},
{{-0.0034161}},
{{-0.9053223}},
{{-0.3612091}}},
{{{0.2296139}},
{{-0.1898294}},
{{0.0793346}},
{{0.0002821}},
{{-0.6460620}},
{{-0.6172116}},
{{-0.7043249}},
{{0.1207607}},
{{-0.0932630}},
{{-0.4538594}},
{{0.5846013}},
{{0.1595774}},
{{-0.3631750}},
{{0.5695040}},
{{0.2982320}},
{{-0.5705852}},
{{-0.6684347}},
{{0.0360925}},
{{-0.8677576}},
{{-0.1120848}},
{{0.0640490}},
{{-0.9915764}},
{{-0.5503449}},
{{-0.0540641}},
{{0.5866350}},
{{-0.4070359}},
{{0.0129688}},
{{0.3255045}},
{{-0.3781244}},
{{0.5812515}},
{{-0.4927941}},
{{-0.3815518}}},
{{{-0.4914103}},
{{-0.4247264}},
{{-0.2046404}},
{{-0.6558878}},
{{-0.1628581}},
{{-0.3126921}},
{{1.0135165}},
{{0.9806833}},
{{0.3746293}},
{{-0.3358071}},
{{0.3629004}},
{{-0.6945292}},
{{0.6801583}},
{{0.0730842}},
{{-0.2213359}},
{{-0.5556807}},
{{-0.3267742}},
{{0.7287953}},
{{0.0169294}},
{{-0.4570636}},
{{0.6351091}},
{{-0.7646263}},
{{0.1206205}},
{{0.0548997}},
{{-0.2844879}},
{{-0.0782400}},
{{-0.7882538}},
{{-0.1744515}},
{{-0.0524420}},
{{0.3148556}},
{{0.2525754}},
{{0.2210911}}},
{{{-0.2164401}},
{{-0.2256789}},
{{-0.0262819}},
{{0.1035651}},
{{-0.2558462}},
{{-0.0089029}},
{{-0.0996313}},
{{0.1586625}},
{{0.1175272}},
{{-0.1075452}},
{{0.5848337}},
{{-0.0980776}},
{{-0.3006168}},
{{0.3482877}},
{{0.4928368}},
{{-0.8026727}},
{{-0.0312303}},
{{0.2723416}},
{{-0.6405919}},
{{-0.3734910}},
{{-0.6460863}},
{{-0.0237595}},
{{-0.8262092}},
{{0.7246459}},
{{-0.2585789}},
{{-0.2740663}},
{{-0.2454624}},
{{-0.6829094}},
{{-0.4584922}},
{{-0.2379155}},
{{0.0136591}},
{{-0.5019031}}},
{{{-0.4317518}},
{{-0.0258687}},
{{0.2601095}},
{{0.1430179}},
{{-0.1438287}},
{{-0.6983131}},
{{-0.4131216}},
{{-0.4057172}},
{{-0.4800190}},
{{-0.1583237}},
{{-0.2456606}},
{{-0.4442731}},
{{-0.2274149}},
{{-0.6700880}},
{{-0.3940602}},
{{-0.3336766}},
{{-0.4015096}},
{{0.3703218}},
{{-0.7353298}},
{{0.2918313}},
{{-0.0542003}},
{{0.1566773}},
{{0.5800888}},
{{-0.1293279}},
{{0.1363698}},
{{-0.2188533}},
{{-0.3599560}},
{{0.0987208}},
{{-0.1669112}},
{{0.6282110}},
{{-0.1720294}},
{{-0.1326806}}},
{{{0.1918375}},
{{-0.2449997}},
{{0.3534334}},
{{-0.4295603}},
{{0.5566477}},
{{-0.0646974}},
{{0.3790535}},
{{-0.3754569}},
{{-0.1747870}},
{{-0.4812625}},
{{0.4207418}},
{{0.1654489}},
{{-0.4713962}},
{{-0.3030069}},
{{-0.1661731}},
{{0.4411647}},
{{-0.3555938}},
{{0.2297290}},
{{0.4939036}},
{{0.0192549}},
{{-0.2204715}},
{{-0.3196815}},
{{0.4322623}},
{{0.5004868}},
{{0.0841913}},
{{0.4792417}},
{{-0.2529616}},
{{0.5068316}},
{{-0.5132042}},
{{0.0433485}},
{{0.2658891}},
{{0.3713213}}},
{{{0.3023012}},
{{-0.4117887}},
{{0.0726925}},
{{-0.6615164}},
{{0.3438193}},
{{0.0532551}},
{{0.5433425}},
{{-0.7118851}},
{{0.0570615}},
{{0.1194271}},
{{0.0343725}},
{{0.3254032}},
{{-0.0225344}},
{{-0.5567941}},
{{0.4363663}},
{{0.2362386}},
{{-0.0615455}},
{{-0.6950074}},
{{0.1559085}},
{{0.6695544}},
{{0.3093871}},
{{0.6507856}},
{{-0.1061904}},
{{-0.5761735}},
{{0.2195062}},
{{-0.2150756}},
{{0.4964132}},
{{0.2872397}},
{{-0.0488522}},
{{0.6572682}},
{{0.0064588}},
{{0.6618792}}},
{{{0.0832408}},
{{-0.6639689}},
{{-0.1128818}},
{{-0.6288906}},
{{-0.5800375}},
{{-0.4063317}},
{{-0.0021567}},
{{-0.5578286}},
{{-0.8155544}},
{{0.0200038}},
{{0.3868428}},
{{0.9402266}},
{{0.3691311}},
{{0.2461705}},
{{0.1886452}},
{{0.0661497}},
{{-0.3740650}},
{{-0.3787203}},
{{-0.4101020}},
{{-0.2233744}},
{{0.3329099}},
{{0.4427759}},
{{-0.2115598}},
{{-0.7147685}},
{{-0.5312917}},
{{0.2729163}},
{{0.1933272}},
{{0.1772339}},
{{0.1790202}},
{{-0.1563450}},
{{0.3572095}},
{{0.0949725}}},
{{{0.5344771}},
{{-0.6721225}},
{{-0.0710658}},
{{-0.4913844}},
{{-0.5403510}},
{{-0.2445774}},
{{-0.8037711}},
{{0.3449591}},
{{0.3719920}},
{{-0.1518979}},
{{0.9283550}},
{{-0.1078871}},
{{0.3976158}},
{{-0.9011134}},
{{0.0205099}},
{{-0.8320875}},
{{0.2953531}},
{{0.8606369}},
{{-0.1522959}},
{{-0.4307181}},
{{-0.4320337}},
{{-0.5665454}},
{{-0.2377615}},
{{0.6368399}},
{{0.4691279}},
{{-0.0091102}},
{{-0.1844096}},
{{-0.5468600}},
{{-0.9123986}},
{{0.5758156}},
{{0.5876043}},
{{0.7500741}}},
{{{0.1023849}},
{{-0.1276069}},
{{-0.1098306}},
{{-0.6251259}},
{{-0.3069414}},
{{-0.1052519}},
{{0.4880158}},
{{0.3768572}},
{{-0.3025421}},
{{-0.3737689}},
{{0.5126050}},
{{-0.1860250}},
{{-0.2756147}},
{{0.0589293}},
{{-0.2842908}},
{{0.5407676}},
{{-0.5441635}},
{{0.6564898}},
{{-0.1620589}},
{{1.0204148}},
{{-0.3190976}},
{{-0.9005834}},
{{0.4421896}},
{{0.4460950}},
{{-0.5062395}},
{{0.1288884}},
{{0.2016058}},
{{-0.5344760}},
{{-0.7233611}},
{{-0.3602414}},
{{-0.8337743}},
{{-0.8227929}}},
{{{0.6446872}},
{{-0.2034012}},
{{-0.4388505}},
{{0.7432867}},
{{-0.4586533}},
{{-1.0027755}},
{{0.6956984}},
{{-0.2342705}},
{{0.7731663}},
{{-0.2720411}},
{{-0.0896650}},
{{-0.8155804}},
{{-0.0534649}},
{{0.4492242}},
{{-0.8610371}},
{{0.2307458}},
{{0.7415932}},
{{-0.3394505}},
{{0.4726399}},
{{-0.3821951}},
{{0.0197042}},
{{0.4866559}},
{{-0.3261678}},
{{0.1100483}},
{{-0.2297212}},
{{0.3195349}},
{{1.2103183}},
{{-0.5837163}},
{{1.2441083}},
{{-0.2939259}},
{{-0.3165563}},
{{-0.7226415}}},
{{{-0.0000600}},
{{-0.6075595}},
{{-0.4141642}},
{{-0.2890996}},
{{0.2347978}},
{{0.0047583}},
{{-0.5450169}},
{{-0.1490036}},
{{0.3409148}},
{{-0.5693565}},
{{-0.3106470}},
{{0.0493071}},
{{-0.0390609}},
{{-0.4388156}},
{{-0.4521464}},
{{0.0911838}},
{{-0.0762339}},
{{-0.1680001}},
{{0.3967673}},
{{-0.3087400}},
{{-0.5184094}},
{{-0.2997484}},
{{0.5609537}},
{{0.4566027}},
{{0.1996548}},
{{-0.5098329}},
{{-0.8132800}},
{{-0.9640146}},
{{-0.6215387}},
{{-0.3807105}},
{{-0.6449832}},
{{0.2846814}}},
{{{-0.5897470}},
{{0.0634924}},
{{0.5659400}},
{{-0.5039039}},
{{0.8131262}},
{{0.5454270}},
{{-0.4035617}},
{{0.2371830}},
{{0.1200848}},
{{-0.5850034}},
{{0.6668345}},
{{0.6639810}},
{{-0.0815966}},
{{0.0773455}},
{{0.2268287}},
{{0.8788450}},
{{0.2878603}},
{{0.1886505}},
{{0.2919499}},
{{0.5243047}},
{{-0.3247905}},
{{-0.1679755}},
{{0.3809930}},
{{0.4060871}},
{{-0.6683786}},
{{0.1615580}},
{{0.8149448}},
{{0.7949314}},
{{0.7758934}},
{{-0.0083499}},
{{-0.1925487}},
{{0.1243263}}},
{{{0.4934631}},
{{0.5307270}},
{{-0.3022828}},
{{0.2072937}},
{{-0.3688429}},
{{0.1973788}},
{{-0.0277448}},
{{-0.0256757}},
{{-0.3036094}},
{{-0.4901381}},
{{-0.5109419}},
{{0.4486226}},
{{-0.2629031}},
{{-0.4527580}},
{{0.1607444}},
{{0.2030399}},
{{0.1683424}},
{{-0.3599429}},
{{0.5044678}},
{{-0.0603898}},
{{-0.6619734}},
{{0.1492799}},
{{-0.3151669}},
{{0.1324575}},
{{0.2113492}},
{{-0.3453085}},
{{0.0596108}},
{{-0.3384556}},
{{0.5650846}},
{{-0.0703543}},
{{0.5573422}},
{{0.1521849}}},
{{{0.0233027}},
{{0.4036017}},
{{0.2794647}},
{{0.9446185}},
{{0.6770151}},
{{-0.0509116}},
{{-0.1605403}},
{{-0.1514940}},
{{0.5004566}},
{{-0.0913705}},
{{0.2911696}},
{{0.5709442}},
{{0.1537701}},
{{0.0192328}},
{{0.5665439}},
{{0.1136360}},
{{-0.2937722}},
{{0.5188723}},
{{0.2986088}},
{{-0.6248494}},
{{0.5703945}},
{{0.1391136}},
{{0.5451145}},
{{-0.3482452}},
{{-0.8579847}},
{{0.7337571}},
{{0.6143324}},
{{0.4230173}},
{{0.1732924}},
{{-0.2403217}},
{{0.1729547}},
{{0.3001366}}},
{{{0.1573193}},
{{0.3625962}},
{{0.4423895}},
{{0.2148426}},
{{-0.6685019}},
{{-0.5343961}},
{{-0.9240996}},
{{-0.0678155}},
{{0.2482434}},
{{-0.4251772}},
{{-0.0476014}},
{{-0.3981023}},
{{-0.6596852}},
{{-0.6651232}},
{{0.2369541}},
{{-0.1955962}},
{{-0.7419965}},
{{-0.1090602}},
{{0.1007678}},
{{0.3347505}},
{{0.0328944}},
{{-0.2585001}},
{{-0.3867123}},
{{-0.2249978}},
{{0.0278317}},
{{0.0879395}},
{{0.2430924}},
{{0.3650411}},
{{-0.1344983}},
{{0.1412010}},
{{0.1811939}},
{{0.3327454}}},
{{{0.3956845}},
{{-0.0099839}},
{{0.4876705}},
{{0.3825435}},
{{0.2851581}},
{{0.3768454}},
{{-0.0219516}},
{{-0.5398160}},
{{0.0485445}},
{{-0.5221859}},
{{0.5362048}},
{{-0.1881095}},
{{0.3040653}},
{{-0.6568699}},
{{-0.6006931}},
{{-0.0311647}},
{{-0.2951345}},
{{-0.4173951}},
{{0.2696453}},
{{-0.0402069}},
{{0.0557744}},
{{-0.4151537}},
{{0.0532729}},
{{0.1220452}},
{{0.5788973}},
{{-0.6560228}},
{{-1.5755098}},
{{-1.0869627}},
{{-0.1536343}},
{{0.3064826}},
{{0.6530658}},
{{0.1162638}}},
{{{-0.8924413}},
{{0.7766535}},
{{-0.4328382}},
{{-0.0245749}},
{{-0.6974385}},
{{-0.1821176}},
{{-0.1530930}},
{{-0.6256819}},
{{-0.1143895}},
{{0.6225335}},
{{0.3922510}},
{{-0.1762003}},
{{-0.5945498}},
{{-0.3383159}},
{{0.4304812}},
{{-0.3371300}},
{{0.2119031}},
{{0.1201605}},
{{0.2001576}},
{{-0.0641076}},
{{-0.6518825}},
{{-0.4291970}},
{{-0.3205907}},
{{0.0862881}},
{{0.0907320}},
{{-0.5389384}},
{{-0.1869413}},
{{-0.3931524}},
{{-0.0248086}},
{{-0.4585833}},
{{-0.4407562}},
{{0.2082545}}},
{{{0.7354820}},
{{0.5904214}},
{{-0.6330620}},
{{-0.3655636}},
{{0.1839825}},
{{0.5944305}},
{{0.2649089}},
{{0.2526010}},
{{-0.1380495}},
{{-0.3539265}},
{{-0.0376887}},
{{-0.0997160}},
{{-0.0774317}},
{{0.9240683}},
{{0.0458778}},
{{-0.0514730}},
{{0.7953295}},
{{-0.2118372}},
{{-1.1324742}},
{{0.8832719}},
{{-0.4283201}},
{{-0.2547915}},
{{-0.1562578}},
{{-0.7799540}},
{{-0.3404517}},
{{0.6004320}},
{{0.6913199}},
{{-0.1457217}},
{{0.5498704}},
{{-0.4943256}},
{{0.2903722}},
{{0.1719228}}},
{{{0.2230305}},
{{-0.2894419}},
{{0.7586576}},
{{-0.0340979}},
{{-0.8307151}},
{{0.0892343}},
{{0.1969451}},
{{-0.3129974}},
{{-0.1886473}},
{{-0.8594207}},
{{0.5225188}},
{{0.0647741}},
{{-0.7613673}},
{{0.5184676}},
{{-0.3326702}},
{{0.9535182}},
{{-0.1028041}},
{{-0.3794844}},
{{-0.6138961}},
{{-0.9295514}},
{{0.5397328}},
{{-0.7835380}},
{{-0.2160534}},
{{-0.6325750}},
{{-0.0816796}},
{{-0.6773267}},
{{0.1837375}},
{{0.5484121}},
{{0.2418310}},
{{-0.6713731}},
{{-0.4258529}},
{{0.5694554}}},
{{{0.3206486}},
{{0.1851121}},
{{-0.0255418}},
{{-0.0909480}},
{{-0.5008513}},
{{0.5953208}},
{{0.2250694}},
{{-0.4642247}},
{{0.2353767}},
{{0.7619891}},
{{-0.5069902}},
{{0.8397560}},
{{0.4418902}},
{{-0.5691078}},
{{-0.4819590}},
{{-0.5764881}},
{{-0.1711660}},
{{-0.1822666}},
{{-0.7234784}},
{{0.5128661}},
{{-0.0060308}},
{{-0.6190138}},
{{-0.6813996}},
{{-0.5193785}},
{{-0.6155584}},
{{-0.0736273}},
{{0.7023923}},
{{0.3365469}},
{{0.6537879}},
{{-0.3590430}},
{{0.3806755}},
{{-0.0367978}}},
{{{-0.7090961}},
{{0.1363517}},
{{-0.2808923}},
{{-0.2289872}},
{{0.0152031}},
{{0.1818641}},
{{0.1180761}},
{{0.2754770}},
{{-0.1550601}},
{{-0.5542313}},
{{-0.5462933}},
{{-0.1291713}},
{{0.1146273}},
{{0.7060832}},
{{-0.4317734}},
{{0.1749518}},
{{-0.2890716}},
{{0.1062339}},
{{-0.2492247}},
{{0.0436547}},
{{0.3273107}},
{{-0.1053020}},
{{0.5011510}},
{{-0.2942559}},
{{-0.6075627}},
{{-0.8182909}},
{{-0.4726205}},
{{-0.1742485}},
{{0.4513761}},
{{-0.2465116}},
{{-0.5819322}},
{{-0.3413967}}},
{{{-0.0444195}},
{{0.3776796}},
{{-0.1962286}},
{{-0.1846606}},
{{0.0883397}},
{{0.6944449}},
{{-0.3287475}},
{{0.5108466}},
{{-0.3857473}},
{{0.1316960}},
{{-0.1205567}},
{{0.5542452}},
{{0.3444039}},
{{0.1739501}},
{{-0.4886512}},
{{0.5524095}},
{{-0.2661868}},
{{-0.8251712}},
{{-0.6280450}},
{{0.7523693}},
{{0.7923017}},
{{-0.9558964}},
{{-0.3907491}},
{{-0.2162366}},
{{0.3037948}},
{{-0.5480425}},
{{-0.9095976}},
{{-0.4640566}},
{{-0.6492839}},
{{1.3665518}},
{{0.3055737}},
{{-0.0139344}}},
{{{-0.2207219}},
{{-0.6281427}},
{{-0.6883231}},
{{0.4762549}},
{{0.5075632}},
{{-0.4686267}},
{{-0.0421830}},
{{0.4686961}},
{{-0.0202166}},
{{-0.0702420}},
{{-0.5759706}},
{{-0.5914508}},
{{0.4562672}},
{{-0.6760074}},
{{0.0320842}},
{{-0.5118531}},
{{-0.4782782}},
{{-0.5297166}},
{{0.1842031}},
{{0.4099296}},
{{0.4719806}},
{{0.4708613}},
{{-0.7079468}},
{{-0.3969603}},
{{-0.5383290}},
{{0.0040070}},
{{0.2744174}},
{{0.1470647}},
{{-0.1704941}},
{{0.6784581}},
{{0.2024536}},
{{-0.8237746}}},
{{{-0.4620392}},
{{0.5086276}},
{{0.4488073}},
{{-0.4880235}},
{{-0.0068891}},
{{-0.5921562}},
{{-0.0638548}},
{{-0.0612112}},
{{-0.0296778}},
{{0.1593351}},
{{0.2595244}},
{{-0.3557615}},
{{-0.7209578}},
{{0.8173547}},
{{0.3254056}},
{{-0.1778459}},
{{0.4807439}},
{{-0.2128323}},
{{0.1052758}},
{{0.4290712}},
{{-0.0692470}},
{{-0.2280643}},
{{-0.4022967}},
{{0.6089371}},
{{0.7937490}},
{{0.3389958}},
{{0.2483325}},
{{0.3171112}},
{{0.1319853}},
{{-0.2925991}},
{{0.2003930}},
{{0.1240079}}},
{{{0.6662251}},
{{-0.1438053}},
{{0.1650977}},
{{-0.4809243}},
{{-0.1766319}},
{{0.6044497}},
{{0.5319617}},
{{-0.0934347}},
{{0.0534923}},
{{0.5661116}},
{{-0.0830148}},
{{-0.4279312}},
{{-0.1614170}},
{{-0.3835473}},
{{0.5065576}},
{{0.4262866}},
{{0.0416740}},
{{0.7882475}},
{{-0.4695443}},
{{-0.2075831}},
{{0.1401121}},
{{0.4421611}},
{{-0.1227091}},
{{-0.2484445}},
{{0.0377855}},
{{-0.5424037}},
{{0.2071601}},
{{-0.1107420}},
{{-0.0757301}},
{{0.2588023}},
{{-0.1854956}},
{{-0.6541032}}},
{{{-0.2805511}},
{{-0.3210393}},
{{0.3041260}},
{{0.0840646}},
{{-0.2544954}},
{{0.4057688}},
{{-0.2879779}},
{{0.6886027}},
{{-0.2163241}},
{{-0.9226343}},
{{0.2948852}},
{{-0.9643707}},
{{-0.1275323}},
{{1.0793333}},
{{-0.0084315}},
{{-0.6401518}},
{{-0.2653914}},
{{-1.0624453}},
{{-0.6095741}},
{{0.7032599}},
{{-0.8679227}},
{{-0.5687309}},
{{0.4523731}},
{{-0.3148148}},
{{-0.8517713}},
{{-0.4216715}},
{{-0.1197826}},
{{-0.4706225}},
{{-0.3491295}},
{{0.5939941}},
{{0.4558018}},
{{0.8158328}}},
{{{0.4460580}},
{{-0.0703206}},
{{-0.2564863}},
{{-0.0531103}},
{{-0.2526228}},
{{-0.3705510}},
{{-0.1606770}},
{{0.0359761}},
{{-0.0500720}},
{{-0.3573855}},
{{-0.0240726}},
{{-0.3530021}},
{{-0.4842812}},
{{0.0466531}},
{{0.3260029}},
{{0.0561927}},
{{0.0794164}},
{{0.7084716}},
{{0.8647948}},
{{-0.0113530}},
{{-0.1366847}},
{{0.3078536}},
{{0.5758670}},
{{-0.5947931}},
{{-0.3245580}},
{{0.5045891}},
{{-0.3768592}},
{{-0.0972522}},
{{0.6876097}},
{{-0.2260857}},
{{0.2011309}},
{{0.1751030}}},
{{{-0.5677958}},
{{-0.7710791}},
{{-0.1076420}},
{{0.3353774}},
{{0.0963995}},
{{-0.2753104}},
{{-0.6356912}},
{{-0.0073820}},
{{0.0724758}},
{{0.5296009}},
{{0.2243343}},
{{0.5373501}},
{{0.2453795}},
{{-0.3580515}},
{{0.5273789}},
{{-0.8686194}},
{{-0.1667391}},
{{0.0338861}},
{{0.4831893}},
{{0.1042458}},
{{0.4428015}},
{{0.1839145}},
{{-0.4508553}},
{{-0.0180150}},
{{0.1303008}},
{{0.2959430}},
{{0.3567450}},
{{0.1734399}},
{{0.4804244}},
{{-0.7224917}},
{{-0.0441369}},
{{0.4199333}}},
{{{0.1368655}},
{{-0.4061313}},
{{-0.0658921}},
{{-0.1741868}},
{{0.3952129}},
{{-0.4414106}},
{{0.6056747}},
{{0.3210926}},
{{-0.4333518}},
{{0.4017399}},
{{0.0448954}},
{{-0.2284894}},
{{0.2935507}},
{{-0.4212383}},
{{-0.0879868}},
{{-0.4033888}},
{{-0.5409918}},
{{-0.7221164}},
{{0.1454512}},
{{-0.0469025}},
{{0.1677264}},
{{0.3241526}},
{{-0.1161386}},
{{-0.3999034}},
{{0.0563333}},
{{-0.1376464}},
{{-0.2672742}},
{{-0.2154293}},
{{0.4658658}},
{{0.8199977}},
{{-0.1269112}},
{{0.4175896}}},
{{{0.2377897}},
{{-0.2251384}},
{{0.0708861}},
{{0.9862186}},
{{-0.4056120}},
{{-0.2180005}},
{{-0.3774036}},
{{-0.8285468}},
{{-0.6509702}},
{{-0.0028698}},
{{0.9494584}},
{{0.3217895}},
{{-0.1468228}},
{{0.1318323}},
{{0.2950809}},
{{-0.1057111}},
{{1.0276798}},
{{0.7538722}},
{{-0.3352116}},
{{0.2538057}},
{{0.0055169}},
{{0.7162932}},
{{-0.4462612}},
{{0.7424921}},
{{-0.8878840}},
{{-0.4499268}},
{{0.2917461}},
{{-0.4007282}},
{{-1.0652938}},
{{1.1204771}},
{{0.1112998}},
{{-0.3716875}}},
{{{-0.3708098}},
{{0.0733822}},
{{-0.2594486}},
{{-0.6447319}},
{{0.3017162}},
{{0.4080670}},
{{-0.0262142}},
{{0.2244829}},
{{0.3333184}},
{{-0.0982604}},
{{0.2488805}},
{{-0.5172926}},
{{0.3741837}},
{{0.4156706}},
{{0.4124045}},
{{-0.0979604}},
{{-0.3160955}},
{{-0.9087057}},
{{0.0683098}},
{{0.0523106}},
{{-0.5804509}},
{{-0.2000063}},
{{0.5213472}},
{{-0.8095545}},
{{-0.6651943}},
{{0.2038091}},
{{-0.4495883}},
{{0.5745242}},
{{0.0102109}},
{{-0.0684722}},
{{-0.5081933}},
{{0.1395444}}},
{{{0.4929815}},
{{0.1806220}},
{{0.1221400}},
{{-0.3947957}},
{{-0.2381638}},
{{-0.1301595}},
{{-0.3756109}},
{{-0.5774245}},
{{-0.4641754}},
{{-0.3177033}},
{{0.0667822}},
{{0.0458109}},
{{-0.1501280}},
{{-0.1896403}},
{{0.2478596}},
{{0.2755371}},
{{-0.1906565}},
{{0.1835049}},
{{-0.0943235}},
{{0.0209011}},
{{0.1691269}},
{{0.0209200}},
{{0.7696944}},
{{0.3727922}},
{{0.2253017}},
{{-0.0427422}},
{{0.3073001}},
{{0.3262713}},
{{0.1133067}},
{{0.5619004}},
{{-0.0976967}},
{{-0.1206852}}},
{{{-0.3197899}},
{{-0.3656476}},
{{0.0207043}},
{{0.0171803}},
{{-0.2471554}},
{{0.2960523}},
{{-0.3203312}},
{{0.1713202}},
{{0.1104924}},
{{-0.2602506}},
{{-0.7355332}},
{{0.4190564}},
{{0.0821695}},
{{-0.0251637}},
{{0.4727640}},
{{0.0035137}},
{{0.3450917}},
{{0.6864153}},
{{0.2204902}},
{{0.0069198}},
{{0.1488135}},
{{-0.1574607}},
{{-0.3660827}},
{{-0.1118249}},
{{0.3612425}},
{{-0.1322527}},
{{-0.0390690}},
{{-0.2924626}},
{{0.4319758}},
{{-0.4231429}},
{{0.4373111}},
{{0.5939568}}},
{{{-0.4745454}},
{{-0.3763482}},
{{-0.2810107}},
{{0.7676786}},
{{0.0825776}},
{{0.0443709}},
{{-0.7509863}},
{{-0.9049761}},
{{-0.2105243}},
{{-0.5163656}},
{{0.5672137}},
{{0.2231592}},
{{0.3575994}},
{{0.3774699}},
{{-0.4618801}},
{{0.5953076}},
{{-0.5909479}},
{{0.7085519}},
{{0.8795400}},
{{0.0733891}},
{{-0.2528501}},
{{-0.1174770}},
{{-0.2490737}},
{{-0.0644218}},
{{-0.4345766}},
{{0.7506960}},
{{0.6583691}},
{{0.3733528}},
{{-0.1645554}},
{{-0.1364919}},
{{0.3210992}},
{{0.0262076}}},
{{{0.7668429}},
{{0.3351488}},
{{0.1266419}},
{{-0.0199031}},
{{-0.0581422}},
{{-0.1267416}},
{{0.3907838}},
{{-0.4557644}},
{{-0.2786716}},
{{-0.5287750}},
{{-0.1546359}},
{{0.4745613}},
{{0.0199091}},
{{-0.2867942}},
{{-0.1644103}},
{{-0.3066175}},
{{0.2444782}},
{{-0.5951146}},
{{0.1171881}},
{{0.7669177}},
{{-0.3975237}},
{{-0.1190780}},
{{-0.0421527}},
{{-0.5342513}},
{{-0.1932174}},
{{-0.2017652}},
{{0.3689309}},
{{0.4040026}},
{{0.2404498}},
{{0.6001068}},
{{0.0884047}},
{{0.4042300}}},
{{{-0.4700052}},
{{0.2303339}},
{{-0.3176141}},
{{0.4100778}},
{{-0.0404811}},
{{-0.2747075}},
{{-0.3742379}},
{{0.3021966}},
{{0.6929363}},
{{-0.2606091}},
{{0.7030606}},
{{0.2348219}},
{{-0.0196335}},
{{0.6614668}},
{{0.4583991}},
{{-1.0084494}},
{{0.3457141}},
{{0.1161207}},
{{-0.6915855}},
{{0.0538337}},
{{0.2777504}},
{{0.2804435}},
{{0.5203751}},
{{-0.5100611}},
{{0.5019220}},
{{0.5810159}},
{{-0.5354728}},
{{0.5663667}},
{{-0.7500817}},
{{-0.6266149}},
{{-0.2371651}},
{{-0.5193053}}},
{{{-0.1251410}},
{{-0.6239633}},
{{-0.2489866}},
{{0.1252332}},
{{-0.1657723}},
{{0.4604155}},
{{-0.5320596}},
{{-0.5962001}},
{{-0.3627963}},
{{0.4783580}},
{{-0.1464329}},
{{0.2761635}},
{{-0.0253070}},
{{-0.5238215}},
{{0.5999160}},
{{0.6718273}},
{{-0.5685992}},
{{-0.5104579}},
{{0.0802453}},
{{-0.5902784}},
{{0.2419676}},
{{0.5273722}},
{{0.1814823}},
{{0.1799602}},
{{0.5076833}},
{{0.3304349}},
{{0.4766394}},
{{0.4047650}},
{{0.3566505}},
{{-0.6893730}},
{{-0.3076423}},
{{0.3720042}}},
{{{-0.4961593}},
{{0.0537403}},
{{1.3801509}},
{{0.4137445}},
{{-0.6525659}},
{{0.2352070}},
{{-0.0601546}},
{{0.4522859}},
{{-0.1322223}},
{{-0.7138081}},
{{0.7439821}},
{{0.0152919}},
{{0.2101664}},
{{-0.4382363}},
{{-0.1712761}},
{{0.2279595}},
{{-0.0655734}},
{{1.0156623}},
{{0.2139825}},
{{0.0003554}},
{{-0.0902653}},
{{-0.2056255}},
{{0.2014906}},
{{0.2117477}},
{{0.6649438}},
{{-0.1696049}},
{{-0.4369414}},
{{-0.5343288}},
{{-0.1028660}},
{{0.3292386}},
{{0.0355306}},
{{-0.0628684}}},
{{{0.7076049}},
{{0.2309970}},
{{-0.9436581}},
{{0.0547148}},
{{-0.6952035}},
{{0.2377190}},
{{0.2064930}},
{{-0.9563984}},
{{-0.1557734}},
{{-0.1220818}},
{{0.4994661}},
{{-0.2070392}},
{{0.8853678}},
{{-0.7487230}},
{{-0.4232072}},
{{0.3017343}},
{{0.3399179}},
{{0.0456167}},
{{0.4055662}},
{{-0.5297776}},
{{0.3091810}},
{{-0.8009021}},
{{-0.7128238}},
{{-0.0159555}},
{{-0.1560210}},
{{-0.6168790}},
{{-0.6745554}},
{{-0.7694296}},
{{-0.9408216}},
{{-0.0756024}},
{{-0.2174428}},
{{-0.6090870}}},
{{{0.0889059}},
{{-0.4297487}},
{{0.6131502}},
{{0.0028870}},
{{0.1633134}},
{{-0.2218784}},
{{0.1725727}},
{{0.7162965}},
{{-0.0678028}},
{{0.4472380}},
{{-0.5321927}},
{{0.2685885}},
{{-0.4855666}},
{{0.4201972}},
{{0.5632410}},
{{-0.4213708}},
{{-0.2080485}},
{{-0.0670561}},
{{-0.0847451}},
{{0.9851748}},
{{-0.4449929}},
{{0.2459067}},
{{0.4708461}},
{{-0.5862305}},
{{-0.5860605}},
{{0.8384346}},
{{-0.1772578}},
{{-0.2486027}},
{{0.3819320}},
{{-0.3002296}},
{{-0.5308089}},
{{-0.1397362}}},
{{{0.5905170}},
{{0.1915898}},
{{0.2648775}},
{{-1.1148133}},
{{0.6234588}},
{{-0.0613326}},
{{-0.1040757}},
{{-0.5525254}},
{{-0.1135396}},
{{-0.5990164}},
{{-0.1190491}},
{{-0.0034112}},
{{-0.3126327}},
{{0.3805318}},
{{0.0719034}},
{{0.2813438}},
{{-0.0314917}},
{{-0.3273660}},
{{-0.0065221}},
{{-0.1683353}},
{{0.1332875}},
{{-0.1717446}},
{{0.0709203}},
{{0.3696927}},
{{0.3605428}},
{{0.9080159}},
{{0.9721810}},
{{0.5258288}},
{{0.4309840}},
{{0.6665111}},
{{-0.3096763}},
{{0.3782126}}}};

// stage3.0_pointwise_bias  shape=(64,)
static const float stage3_0_pointwise_bias[64] = 
{0.0998201, 0.2487927, 0.2950857, 0.4877888, -0.1043639, -0.5403519, 0.1111743, -0.5570837, 0.8155165, 0.0749729, -0.3583407, -0.2379193, 0.2927991, 0.6302942, -0.3382971, 0.1303834, 0.2653208, 0.7985587, 0.5235373, -0.5741432, 0.3798939, -0.3474947, 0.0448348, 1.2911634, 0.7552484, 0.1429596, 1.1652606, 0.1696099, -0.0678505, 0.3957308, 0.5843393, 0.0770303, -0.5286887, 0.4683780, 0.0485048, -1.0396070, -0.2557396, 0.1494468, 0.3288322, 0.0656948, -1.1962476, 0.1099873, -0.8641329, 0.5103689, 0.6360635, 0.4496863, -0.1344837, -0.3890937, 0.3509321, -0.4696790, -0.0438419, 0.8068233, 0.2648996, 0.6743426, 0.4628595, -0.9977254, 0.3624027, -0.2879461, 0.3220956, -0.1977814, 0.0964093, 0.1442771, -0.7084957, 0.1388274};

// stage3.1_depthwise_weight  shape=(64, 1, 3, 3)
static const float stage3_1_depthwise_weight[64][1][3][3] = 
{{{{0.2120392, -0.0498984, 0.1952899},
{0.1490553, 0.2915787, 0.1338741},
{0.0125303, 0.0789072, -0.0867423}}},
{{{-0.0028880, 0.1463701, -0.1254323},
{-0.2634099, 0.2903225, 0.0658041},
{-0.1353160, -0.0283540, 0.1927224}}},
{{{-0.0173288, 0.2876994, -0.1839987},
{0.2361927, -0.0696443, -0.0453737},
{-0.0117398, 0.2986625, -0.0966034}}},
{{{-0.0100396, -0.0483691, -0.0557073},
{0.1312693, -0.2879012, -0.1517409},
{0.2802452, 0.1206795, 0.0171862}}},
{{{-0.0655109, 0.1654871, -0.3039209},
{-0.2935117, -0.2613543, -0.2286717},
{-0.0845587, -0.2841057, 0.0729429}}},
{{{0.1440216, -0.2156076, -0.0872905},
{-0.2372942, 0.0665399, 0.1759458},
{-0.3708910, -0.3297218, 0.1442389}}},
{{{0.1685598, 0.1990076, 0.3407739},
{0.0542165, 0.1304111, 0.0739870},
{0.2272639, -0.2445814, -0.0076998}}},
{{{0.2493902, 0.1693174, -0.1716779},
{0.1387271, -0.0630897, 0.0197614},
{-0.0047349, -0.2832203, -0.2648090}}},
{{{-0.3280454, 0.2548628, 0.2605795},
{0.1347558, 0.1944540, -0.2577899},
{0.3302127, 0.3432623, 0.1216664}}},
{{{-0.2920943, -0.3421706, -0.0345200},
{-0.0578847, -0.3970602, -0.3559462},
{-0.0293980, -0.1285892, -0.1618457}}},
{{{-0.0212411, -0.0106331, 0.0466306},
{-0.0793197, -0.2456347, -0.3072366},
{-0.0962177, -0.0900986, 0.0842379}}},
{{{-0.3876284, -0.2450371, -0.0768858},
{-0.2263669, -0.1354320, -0.1826235},
{-0.3059869, 0.2779878, 0.2718756}}},
{{{0.3139440, 0.2871962, -0.0073905},
{0.0962026, 0.1010158, -0.2036362},
{-0.2032851, -0.2691001, 0.0056343}}},
{{{-0.1972016, -0.1949965, 0.2254049},
{-0.1164779, -0.2794354, 0.0500262},
{-0.2906017, -0.2306976, 0.1944374}}},
{{{0.1854128, -0.1474009, 0.3113171},
{-0.2879248, -0.2287495, -0.1779526},
{0.2499059, -0.1629682, 0.0027516}}},
{{{0.0732340, -0.0202558, -0.2263147},
{-0.2104476, -0.2282731, -0.3655374},
{-0.2840691, -0.0726022, -0.2907825}}},
{{{-0.0658078, -0.0979485, -0.2919002},
{-0.1000534, -0.1966843, -0.0235574},
{-0.1571834, 0.2508204, -0.1622569}}},
{{{0.0737835, 0.2299750, 0.2694379},
{-0.3774551, -0.2345026, 0.1966934},
{-0.0221950, 0.0909427, 0.2591504}}},
{{{0.1276230, -0.1673775, 0.0621154},
{0.2853023, -0.2272368, -0.3005027},
{0.2183506, 0.3407341, 0.1066635}}},
{{{-0.0521193, -0.3018684, -0.3188941},
{-0.1241545, -0.2973427, -0.2837806},
{0.3332106, -0.1409112, -0.2495246}}},
{{{-0.1173506, -0.3078237, 0.1069480},
{-0.1276353, -0.2304981, 0.3115460},
{-0.1728528, -0.1966049, -0.2065278}}},
{{{-0.3112798, 0.2304652, -0.1472462},
{0.1327496, 0.2870596, 0.1184134},
{-0.3650811, 0.3622077, -0.3133857}}},
{{{-0.1517313, -0.1271454, -0.3103290},
{-0.2569692, 0.2956507, -0.2937045},
{0.0359819, 0.1260058, 0.0117325}}},
{{{-0.2727631, 0.0223847, -0.0032151},
{-0.2271547, 0.2845608, 0.1524083},
{-0.1700897, 0.0585496, 0.1374159}}},
{{{-0.2559395, 0.0623149, -0.2087357},
{0.0817507, 0.0811934, -0.1783894},
{0.2005130, 0.3046768, -0.0929715}}},
{{{0.0010419, -0.1603645, 0.0044363},
{-0.0833457, -0.2183887, -0.3014486},
{0.2160984, 0.2953661, 0.1777836}}},
{{{0.2043041, -0.0902758, -0.1735997},
{0.2449545, 0.2381658, 0.1049387},
{-0.0432829, -0.0347006, 0.0564361}}},
{{{-0.1453441, 0.1661700, 0.2342893},
{-0.1503757, -0.0729644, -0.2362910},
{0.0313682, 0.2776812, -0.1466331}}},
{{{0.0248446, 0.2067309, -0.3014264},
{0.2616375, 0.0775654, -0.0519613},
{-0.3189316, -0.3073626, -0.0848043}}},
{{{-0.1127011, -0.2056643, -0.1159845},
{-0.3459143, -0.0030082, 0.0135322},
{0.1740791, -0.1072216, -0.3834061}}},
{{{-0.2503417, -0.2023469, 0.1627180},
{-0.0185398, 0.1332250, 0.1844577},
{-0.1002654, -0.0813023, 0.0337662}}},
{{{-0.1419923, 0.3167084, 0.2173254},
{-0.0631829, -0.1019344, 0.1171899},
{0.0778586, 0.0543133, -0.0257749}}},
{{{-0.1607700, 0.2603453, 0.1485699},
{-0.3173976, 0.0229628, 0.2580183},
{0.0786735, 0.2093478, 0.3563215}}},
{{{-0.2325519, 0.0905982, -0.2535096},
{0.0660446, 0.0381374, -0.1828406},
{0.0766686, 0.2342442, 0.4286274}}},
{{{0.2855154, 0.3154926, 0.1369149},
{0.0168937, -0.2217478, -0.0461875},
{-0.0438022, 0.1294039, -0.1621632}}},
{{{-0.2063098, 0.2212488, -0.1545133},
{0.1846771, -0.0947822, 0.0480882},
{0.2715177, -0.1995097, 0.1512288}}},
{{{-0.1839176, -0.2135805, 0.1302837},
{-0.3221364, 0.2055115, -0.2775322},
{-0.1665949, -0.1079806, -0.3084251}}},
{{{0.0451046, -0.0997539, 0.0562050},
{0.3655921, 0.3264126, 0.1243228},
{0.2321057, 0.1186310, -0.1524615}}},
{{{0.1873902, 0.0656358, 0.2543171},
{-0.2529904, 0.0312019, -0.1515363},
{0.0334040, 0.1574313, 0.2439137}}},
{{{-0.0253980, -0.0260956, -0.2720216},
{0.0040166, -0.2816588, -0.3596149},
{0.0270084, -0.0138896, -0.2903589}}},
{{{-0.0610130, 0.3739259, 0.1579853},
{0.0790847, -0.0483387, -0.1759176},
{0.0156423, -0.0799429, -0.2283488}}},
{{{-0.3578885, 0.1993210, 0.1916710},
{-0.2256868, -0.0748867, 0.1338580},
{0.0340680, -0.2529694, 0.2345055}}},
{{{-0.3522675, -0.3297932, -0.0048444},
{0.2195769, 0.0400100, -0.0752051},
{-0.0422020, 0.1931540, 0.3545641}}},
{{{0.1292361, -0.3169426, -0.1886046},
{0.2246184, -0.1866107, -0.2545696},
{-0.2949118, 0.2331373, 0.0361006}}},
{{{-0.0068114, 0.3441740, 0.2504719},
{0.1448121, -0.0628653, 0.2702512},
{-0.1802915, -0.3396458, 0.0314709}}},
{{{0.0404168, 0.2622563, -0.1945746},
{-0.1637844, 0.1962903, 0.1552067},
{0.0061543, 0.0498845, -0.1335938}}},
{{{-0.2489782, 0.1224835, -0.4177553},
{-0.2136837, 0.1106405, -0.1519130},
{0.2417222, 0.2518876, -0.3105534}}},
{{{0.2552907, -0.2681341, -0.2784032},
{0.0282359, -0.0231362, -0.2571731},
{0.2502398, -0.1948124, -0.0425114}}},
{{{-0.1091810, -0.1653639, -0.1261556},
{-0.0832280, -0.1662014, -0.1510180},
{-0.2082135, -0.3366961, -0.2686563}}},
{{{0.2436288, 0.1014192, -0.2561694},
{-0.0272947, 0.2169297, 0.2368964},
{0.1995167, 0.2698390, -0.0514428}}},
{{{0.0711524, 0.1648283, -0.1564029},
{0.1336089, -0.1249968, 0.0266281},
{0.0473783, 0.2885375, -0.3580436}}},
{{{0.2875186, 0.0007562, 0.2584976},
{0.3436749, -0.0226904, 0.0237582},
{0.2524876, -0.1126337, -0.2841916}}},
{{{0.2191510, 0.1618101, 0.0383665},
{-0.2441814, 0.2192383, -0.2607322},
{-0.0561442, -0.3605433, -0.2671016}}},
{{{-0.2864341, 0.3069950, 0.1720212},
{-0.3050099, 0.1599894, 0.2208166},
{-0.3458962, 0.1526870, -0.2861386}}},
{{{-0.3289648, -0.0339681, 0.1539537},
{0.1645126, 0.1207345, 0.1909581},
{-0.1819983, 0.2946257, 0.1093129}}},
{{{-0.3081819, 0.0870201, 0.2269186},
{0.0047747, -0.1836565, -0.1111751},
{-0.1031543, -0.3079708, -0.2621305}}},
{{{0.1062397, 0.0814767, 0.3762291},
{-0.3001663, -0.1962552, -0.2085559},
{-0.0467405, 0.2154839, -0.1145457}}},
{{{-0.2031221, 0.1327273, 0.3829839},
{-0.0674855, 0.2786937, 0.1935948},
{-0.2627848, 0.2700659, -0.1432792}}},
{{{-0.2584282, 0.1983054, 0.2201431},
{-0.1812182, 0.3253673, 0.2037100},
{0.1664354, -0.1599947, 0.0783875}}},
{{{0.1607997, -0.0371600, 0.2942744},
{-0.1239797, -0.0164858, -0.3085026},
{-0.2375828, 0.0976234, 0.2021187}}},
{{{0.0978874, 0.2267970, 0.3300707},
{0.1935031, 0.2909032, 0.2590674},
{-0.1177295, 0.2560509, 0.2517835}}},
{{{0.0164739, 0.3537800, -0.0793390},
{-0.2765258, 0.2191272, -0.0744558},
{0.1293419, -0.1664282, -0.2768245}}},
{{{0.0638484, 0.1329041, -0.0593208},
{-0.0908162, 0.2999404, 0.2846803},
{0.0846089, 0.0271580, -0.0549345}}},
{{{-0.0249446, 0.2930653, -0.2009939},
{0.1096223, -0.0712620, 0.3400116},
{-0.1378109, -0.2369446, -0.0002971}}}};

// stage3.1_pointwise_weight  shape=(64, 64, 1, 1)
static const float stage3_1_pointwise_weight[64][64][1][1] = 
{{{{-0.2326064}},
{{0.3627454}},
{{-0.1971566}},
{{0.2633979}},
{{-0.1567511}},
{{-0.2432072}},
{{-0.2702693}},
{{-0.2582644}},
{{0.1533705}},
{{0.4338808}},
{{-0.2598484}},
{{0.1678974}},
{{0.0109758}},
{{-0.5421966}},
{{-0.2246639}},
{{-0.1645067}},
{{-0.2338195}},
{{-0.4502652}},
{{0.2296426}},
{{-0.0774681}},
{{0.2347932}},
{{-0.0414358}},
{{-0.3465744}},
{{0.2453772}},
{{0.1665361}},
{{0.0570480}},
{{0.5085474}},
{{-0.2430779}},
{{0.1352652}},
{{0.3818112}},
{{0.2900744}},
{{-0.0648484}},
{{0.0401231}},
{{0.2080370}},
{{-0.2096886}},
{{0.0616584}},
{{-0.3103056}},
{{-0.2230814}},
{{-0.5282971}},
{{-0.0462755}},
{{0.0713095}},
{{-0.3324715}},
{{0.4749057}},
{{0.3717200}},
{{0.1231301}},
{{-0.1900817}},
{{-0.1154544}},
{{-0.1771128}},
{{-0.1324907}},
{{-0.2731817}},
{{0.2969730}},
{{-0.3648905}},
{{-0.0850700}},
{{0.1735183}},
{{0.2912222}},
{{-0.1662585}},
{{0.5729164}},
{{-0.1097963}},
{{0.0445185}},
{{-0.0810980}},
{{0.3807789}},
{{0.1038488}},
{{-0.0565450}},
{{-0.0258949}}},
{{{-0.1528853}},
{{0.0159672}},
{{-0.3322686}},
{{0.0247199}},
{{-0.2313949}},
{{0.1105161}},
{{-0.2162085}},
{{0.1064372}},
{{-0.2669691}},
{{0.0338458}},
{{-0.3855160}},
{{0.1059166}},
{{-0.1148546}},
{{-0.3849631}},
{{0.2353464}},
{{-0.1080066}},
{{0.3013645}},
{{-0.1529742}},
{{0.2604688}},
{{0.2956292}},
{{-0.0468272}},
{{0.4126974}},
{{-0.2163415}},
{{-0.4753098}},
{{0.0253753}},
{{-0.2725494}},
{{0.2294230}},
{{-0.0250387}},
{{-0.1711438}},
{{0.4171382}},
{{-0.3707757}},
{{-0.0760424}},
{{-0.0130317}},
{{-0.2054008}},
{{-0.3092537}},
{{0.0166640}},
{{0.0973145}},
{{0.3474399}},
{{-0.1398106}},
{{-0.3903444}},
{{-0.0153554}},
{{-0.2930171}},
{{-0.0615793}},
{{-0.2453995}},
{{-0.2804134}},
{{-0.1819976}},
{{0.1219345}},
{{0.1696108}},
{{0.2900353}},
{{0.0303675}},
{{-0.1963907}},
{{-0.1660966}},
{{0.2410973}},
{{0.0823573}},
{{-0.1607938}},
{{-0.4108593}},
{{-0.0533484}},
{{0.0186153}},
{{0.1153968}},
{{-0.1644111}},
{{0.1057251}},
{{-0.4217882}},
{{-0.2086847}},
{{0.0837990}}},
{{{0.1466262}},
{{-0.2114276}},
{{0.0078371}},
{{-0.1893813}},
{{-0.1764643}},
{{0.2040631}},
{{0.4076934}},
{{-0.0388019}},
{{0.0645402}},
{{-0.1856817}},
{{0.0948462}},
{{0.2151686}},
{{0.3339077}},
{{-0.0209224}},
{{0.0049902}},
{{0.0641159}},
{{-0.1074705}},
{{-0.0504738}},
{{-0.0604931}},
{{0.4880860}},
{{0.0012957}},
{{0.2130256}},
{{-0.1144033}},
{{-0.3026806}},
{{0.2414205}},
{{0.2247616}},
{{-0.0454296}},
{{-0.1180215}},
{{-0.1571569}},
{{0.0237414}},
{{-0.0330970}},
{{-0.2076265}},
{{0.0845326}},
{{0.2543964}},
{{0.1725845}},
{{-0.2968097}},
{{-0.3986978}},
{{0.2281091}},
{{0.1128071}},
{{-0.2675611}},
{{-0.0567198}},
{{-0.1379713}},
{{0.2344945}},
{{0.0764867}},
{{-0.1603828}},
{{0.1645719}},
{{-0.0701702}},
{{0.3835548}},
{{0.3398343}},
{{0.0023902}},
{{-0.1781700}},
{{0.1499701}},
{{0.1476221}},
{{0.1245885}},
{{0.0719711}},
{{0.0296993}},
{{0.0857842}},
{{-0.4300156}},
{{-0.2074546}},
{{-0.1382842}},
{{-0.2997047}},
{{0.0029453}},
{{-0.0938478}},
{{-0.1354624}}},
{{{0.3766170}},
{{0.0369410}},
{{-0.4189033}},
{{-0.4704478}},
{{-0.2724024}},
{{0.0213071}},
{{0.4500226}},
{{-0.1151023}},
{{0.1714804}},
{{0.4937369}},
{{-0.1876217}},
{{-0.2023473}},
{{0.2163642}},
{{0.0383889}},
{{-0.0491851}},
{{0.0124427}},
{{-0.0180317}},
{{0.3086383}},
{{0.2275249}},
{{0.1628756}},
{{0.1296137}},
{{-0.0954721}},
{{-0.3903367}},
{{-0.4201258}},
{{-0.6372137}},
{{-0.0258959}},
{{-0.1272260}},
{{-0.3240542}},
{{0.6056134}},
{{0.1166122}},
{{-0.0932839}},
{{0.2329936}},
{{0.0170033}},
{{-0.1126095}},
{{-0.4548500}},
{{0.1365415}},
{{-0.0975513}},
{{0.3336316}},
{{0.3728068}},
{{-0.0344093}},
{{-0.3134390}},
{{0.1054852}},
{{0.0165230}},
{{-0.1734665}},
{{0.3493167}},
{{-0.0743372}},
{{-0.1948039}},
{{0.2196800}},
{{0.0763445}},
{{-0.0573213}},
{{-0.1321821}},
{{0.2826245}},
{{0.2788303}},
{{0.1171564}},
{{-0.0237217}},
{{0.0565501}},
{{-0.0795887}},
{{0.0222031}},
{{0.1429068}},
{{-0.3647017}},
{{0.3994219}},
{{0.4330560}},
{{0.0459697}},
{{0.3116473}}},
{{{-0.3706333}},
{{-0.1218525}},
{{0.5662068}},
{{0.3943284}},
{{0.3056757}},
{{0.0143511}},
{{0.4480696}},
{{-0.0478684}},
{{-0.2574936}},
{{-0.3277781}},
{{-0.3226060}},
{{-0.2373112}},
{{0.3585577}},
{{-0.4896640}},
{{0.3289964}},
{{0.1251331}},
{{0.1521290}},
{{0.2255027}},
{{0.4945229}},
{{0.0528829}},
{{0.1439336}},
{{0.4838320}},
{{-0.2932719}},
{{-0.5055360}},
{{-0.2789863}},
{{0.0214493}},
{{-0.3877953}},
{{-0.1876957}},
{{-0.2396982}},
{{-0.0793509}},
{{-0.0574988}},
{{-0.5101101}},
{{0.4525559}},
{{0.1821072}},
{{-0.1201317}},
{{-0.3576311}},
{{-0.4338380}},
{{0.2870486}},
{{0.2111214}},
{{-0.3021209}},
{{-0.0091878}},
{{-0.4328746}},
{{-0.2768743}},
{{0.0985391}},
{{0.1695964}},
{{-0.2226264}},
{{0.3182651}},
{{0.6443611}},
{{0.4796515}},
{{0.1459118}},
{{0.0874376}},
{{0.0348045}},
{{0.4476270}},
{{-0.0362034}},
{{0.2767963}},
{{-0.0135463}},
{{0.2317138}},
{{0.3667269}},
{{-0.2067972}},
{{-0.4507511}},
{{-0.3107579}},
{{-0.2838328}},
{{-0.5270192}},
{{-0.0188786}}},
{{{0.1164121}},
{{0.5614645}},
{{-0.8209202}},
{{0.2568228}},
{{0.0437805}},
{{-0.5718262}},
{{-0.2546822}},
{{-0.0643754}},
{{0.0535381}},
{{-0.6914267}},
{{0.0334842}},
{{0.4066284}},
{{0.0518018}},
{{0.1475425}},
{{0.1783327}},
{{-0.1240854}},
{{0.0630959}},
{{0.0257137}},
{{-0.4820410}},
{{-0.1518950}},
{{0.3187927}},
{{-0.3820153}},
{{-0.1782919}},
{{0.4323924}},
{{0.2255535}},
{{0.1683269}},
{{0.0662986}},
{{-0.0786143}},
{{0.1935546}},
{{-0.1880118}},
{{-0.1355356}},
{{-0.0309098}},
{{-0.6297323}},
{{-0.1914053}},
{{0.0882811}},
{{0.5879682}},
{{0.2268493}},
{{-0.0178017}},
{{-0.4028178}},
{{-0.1209657}},
{{-0.0578664}},
{{0.5412003}},
{{0.1253091}},
{{0.0549954}},
{{0.3044296}},
{{-0.0693995}},
{{-0.3143186}},
{{-0.0905594}},
{{0.1304534}},
{{-0.1238943}},
{{0.2663260}},
{{0.2672835}},
{{0.3205725}},
{{0.3292874}},
{{0.2269832}},
{{0.3301218}},
{{-0.0718402}},
{{-0.5518584}},
{{-0.3436842}},
{{0.1674099}},
{{0.0109338}},
{{-0.3552196}},
{{-0.0247507}},
{{0.1484980}}},
{{{0.3391395}},
{{-0.1810416}},
{{0.5194595}},
{{-0.3519192}},
{{-0.0927475}},
{{0.2201954}},
{{-0.0073284}},
{{0.5479683}},
{{-0.0133945}},
{{-0.0261497}},
{{0.0650861}},
{{0.3900233}},
{{-0.2963204}},
{{0.0299497}},
{{-0.0258357}},
{{-0.4434968}},
{{0.2416992}},
{{0.2486563}},
{{0.2671067}},
{{-0.3932571}},
{{-0.0983566}},
{{0.0093544}},
{{-0.0660324}},
{{-0.0247234}},
{{-0.1320226}},
{{0.6233427}},
{{0.2473205}},
{{0.3448281}},
{{-0.0842434}},
{{-0.0226919}},
{{-0.6279244}},
{{-0.0643364}},
{{-0.2604396}},
{{-0.2926478}},
{{-0.0750606}},
{{0.0244459}},
{{0.4389809}},
{{0.0229700}},
{{0.3665442}},
{{-0.0472091}},
{{-0.2098790}},
{{0.0781529}},
{{0.1588818}},
{{0.0384253}},
{{0.5046136}},
{{0.0949487}},
{{0.0065844}},
{{-0.2251486}},
{{-0.4590659}},
{{-0.2862246}},
{{-0.2066516}},
{{0.2062140}},
{{0.1523162}},
{{-0.2063067}},
{{-0.2888063}},
{{0.0423877}},
{{0.1928317}},
{{0.1846807}},
{{-0.0512341}},
{{0.4277596}},
{{0.0570629}},
{{0.1710406}},
{{-0.2676501}},
{{0.3929995}}},
{{{0.3950430}},
{{-0.0131273}},
{{0.2310038}},
{{0.2636205}},
{{0.2476621}},
{{0.2338135}},
{{-0.4333812}},
{{-0.0434981}},
{{0.4664493}},
{{0.2336966}},
{{-0.2063467}},
{{-0.3412440}},
{{0.2934318}},
{{-0.2594790}},
{{-0.4221805}},
{{0.3431389}},
{{0.1197584}},
{{0.3671930}},
{{0.2764903}},
{{0.1732300}},
{{-0.4390458}},
{{0.4745185}},
{{0.3646784}},
{{-0.1863964}},
{{-0.1231162}},
{{-0.2361840}},
{{-0.1099747}},
{{0.2641836}},
{{-0.4279020}},
{{-0.5790211}},
{{0.2017865}},
{{-0.1987642}},
{{-0.0280166}},
{{-0.0195909}},
{{0.1064678}},
{{-0.3903988}},
{{0.2457082}},
{{0.4376146}},
{{-0.0078249}},
{{0.4223015}},
{{-0.0638356}},
{{0.2281991}},
{{-0.2811384}},
{{0.3635358}},
{{0.3469532}},
{{0.0495820}},
{{-0.0450672}},
{{0.0389067}},
{{0.2015074}},
{{0.3408459}},
{{0.1183499}},
{{-0.0643172}},
{{0.1277932}},
{{-0.0102649}},
{{-0.1111011}},
{{0.1968995}},
{{-0.0460399}},
{{-0.1951376}},
{{0.4743977}},
{{0.0868476}},
{{0.1796714}},
{{0.0057331}},
{{-0.0346569}},
{{0.1232998}}},
{{{-0.1694574}},
{{-0.0360455}},
{{0.2099416}},
{{-0.1989858}},
{{-0.2663021}},
{{-0.0679030}},
{{0.0282936}},
{{0.0948752}},
{{0.1199549}},
{{-0.2483876}},
{{0.0553865}},
{{-0.4002022}},
{{0.0649044}},
{{0.3384154}},
{{0.0388794}},
{{-0.1221881}},
{{-0.0245441}},
{{0.0366503}},
{{-0.2481663}},
{{-0.1457749}},
{{0.0885708}},
{{-0.0783955}},
{{0.0719412}},
{{0.1150232}},
{{-0.2399254}},
{{0.2588750}},
{{0.1134589}},
{{-0.2787574}},
{{0.0216508}},
{{0.3196937}},
{{0.0168178}},
{{0.2608836}},
{{0.1217775}},
{{0.0017863}},
{{-0.0697103}},
{{0.1581943}},
{{0.3012487}},
{{0.2453815}},
{{-0.0714913}},
{{0.2143562}},
{{0.1318808}},
{{-0.0699751}},
{{-0.1300178}},
{{-0.0069879}},
{{-0.0139555}},
{{0.1468436}},
{{-0.1618274}},
{{-0.0219664}},
{{-0.2516077}},
{{0.2551033}},
{{0.2245919}},
{{0.0620983}},
{{-0.0545358}},
{{-0.0089850}},
{{0.1905420}},
{{0.0961366}},
{{-0.0888694}},
{{0.2844231}},
{{0.0271816}},
{{-0.0236707}},
{{-0.1496434}},
{{0.0023204}},
{{0.4498616}},
{{0.0481136}}},
{{{0.0508923}},
{{0.1200181}},
{{-0.1593336}},
{{0.1874789}},
{{0.1272754}},
{{0.2546253}},
{{-0.3722441}},
{{0.1288497}},
{{-0.3563251}},
{{0.1933494}},
{{-0.2642669}},
{{-0.0369653}},
{{0.2463327}},
{{0.3860413}},
{{0.4204810}},
{{-0.5587972}},
{{-0.3681538}},
{{-0.6786085}},
{{0.4260389}},
{{0.4299819}},
{{0.1495177}},
{{-0.4678019}},
{{-0.3411721}},
{{-0.1305169}},
{{-0.1426699}},
{{0.5018113}},
{{-0.0335585}},
{{-0.1600221}},
{{-0.2265609}},
{{-0.2928633}},
{{-0.3097174}},
{{0.1978024}},
{{0.3734185}},
{{0.8837000}},
{{0.2517222}},
{{0.0774268}},
{{0.2745935}},
{{0.1334987}},
{{0.0021359}},
{{0.3996256}},
{{0.5387736}},
{{-0.2804457}},
{{-0.8805622}},
{{-0.2148466}},
{{-0.6011543}},
{{0.3464651}},
{{-0.1260568}},
{{0.0116599}},
{{0.3764863}},
{{0.5078183}},
{{-0.3103617}},
{{-0.1025833}},
{{-0.5369478}},
{{-0.1238161}},
{{0.5106739}},
{{-0.5065010}},
{{-0.2426466}},
{{-0.0090065}},
{{-0.3547336}},
{{-0.2585850}},
{{0.2766440}},
{{-0.0167432}},
{{0.4639700}},
{{0.2328710}}},
{{{-0.3792889}},
{{0.1350566}},
{{0.0232815}},
{{-0.1021648}},
{{-0.2827239}},
{{-0.0078454}},
{{0.0039646}},
{{-0.1157578}},
{{0.3028597}},
{{0.2830618}},
{{-0.1290980}},
{{0.0456246}},
{{0.0144443}},
{{0.1320306}},
{{-0.1399776}},
{{0.0442650}},
{{-0.4018452}},
{{-0.2228863}},
{{0.4106627}},
{{0.3757450}},
{{-0.2362899}},
{{-0.1029718}},
{{0.2083153}},
{{-0.2163025}},
{{-0.0734560}},
{{0.1898419}},
{{-0.0159374}},
{{0.2009070}},
{{-0.1732185}},
{{-0.2422057}},
{{0.1610881}},
{{-0.2133365}},
{{0.1830579}},
{{0.2214337}},
{{0.0584634}},
{{0.2133299}},
{{-0.3424573}},
{{0.2211547}},
{{-0.0419366}},
{{0.3995104}},
{{-0.1630980}},
{{-0.2317361}},
{{-0.0392117}},
{{0.2443603}},
{{-0.1525782}},
{{0.0991665}},
{{0.0868936}},
{{0.1615716}},
{{-0.0677421}},
{{-0.2339752}},
{{0.2187960}},
{{0.0707723}},
{{0.1387890}},
{{-0.0796040}},
{{-0.2287402}},
{{0.1816203}},
{{-0.3234946}},
{{0.1708339}},
{{0.2367348}},
{{0.2114841}},
{{-0.2416240}},
{{0.1752979}},
{{0.1383201}},
{{0.0527631}}},
{{{-0.1779778}},
{{-0.4721558}},
{{-0.2568415}},
{{-0.3860825}},
{{0.1998300}},
{{0.1345717}},
{{-0.5464638}},
{{-0.1446315}},
{{0.0967507}},
{{-0.2854583}},
{{0.0582746}},
{{-0.1242737}},
{{-0.0781023}},
{{-0.0217467}},
{{-0.3707017}},
{{-0.2252945}},
{{-0.3576779}},
{{0.0329823}},
{{0.1772932}},
{{-0.0196593}},
{{-0.3802589}},
{{0.1507766}},
{{-0.5694689}},
{{-0.3444923}},
{{0.0203359}},
{{0.2313528}},
{{-0.0156111}},
{{0.7263064}},
{{0.1883179}},
{{0.0220907}},
{{0.3951344}},
{{-0.1037231}},
{{-0.3480476}},
{{0.0458296}},
{{-0.2228595}},
{{-0.0226333}},
{{0.0685289}},
{{0.1757638}},
{{-0.1046441}},
{{0.1363391}},
{{-0.4352885}},
{{-0.2899193}},
{{0.4097803}},
{{0.3372405}},
{{0.1558176}},
{{-0.4253684}},
{{-0.1811627}},
{{0.1857730}},
{{0.1056399}},
{{0.2293054}},
{{-0.3753253}},
{{0.0788388}},
{{0.2761854}},
{{-0.2023724}},
{{0.2204690}},
{{0.0798527}},
{{-0.2127844}},
{{0.3931779}},
{{-0.2930326}},
{{-0.3741217}},
{{-0.2638578}},
{{-0.1128836}},
{{-0.1844914}},
{{-0.3007630}}},
{{{-0.2220903}},
{{-0.2655137}},
{{0.0576277}},
{{-0.0145652}},
{{-0.5089920}},
{{-0.0062015}},
{{-0.1920048}},
{{-0.3703566}},
{{-0.2301987}},
{{0.2253326}},
{{-0.0641209}},
{{0.6912028}},
{{0.0507541}},
{{-0.0794374}},
{{-0.3048064}},
{{0.0931933}},
{{0.2288061}},
{{0.0981312}},
{{-0.2372815}},
{{-0.2464737}},
{{0.2488839}},
{{0.4220229}},
{{0.0004271}},
{{-0.1667077}},
{{-0.2286813}},
{{0.1177612}},
{{0.1052999}},
{{0.3834408}},
{{-0.4655040}},
{{-0.2430071}},
{{0.2501038}},
{{-0.3034964}},
{{0.3703502}},
{{0.2120303}},
{{-0.0483628}},
{{0.0152154}},
{{-0.2008030}},
{{-0.2305318}},
{{-0.0629686}},
{{-0.0247166}},
{{-0.0219838}},
{{0.3468215}},
{{0.0555825}},
{{0.1837800}},
{{0.1808045}},
{{-0.0505900}},
{{0.4704569}},
{{0.1083217}},
{{0.2098612}},
{{0.0167121}},
{{-0.2536555}},
{{0.0728671}},
{{0.3470171}},
{{0.2058048}},
{{0.0770627}},
{{0.3359899}},
{{-0.2225006}},
{{-0.0200980}},
{{-0.1452581}},
{{0.3030019}},
{{0.1380795}},
{{0.3758336}},
{{-0.1555102}},
{{-0.3204632}}},
{{{0.1965593}},
{{-0.3187605}},
{{-0.4353127}},
{{-0.1149834}},
{{0.3458245}},
{{0.4939442}},
{{-0.0199029}},
{{0.0131219}},
{{-0.3653077}},
{{-0.2369262}},
{{0.3126942}},
{{-0.2953898}},
{{0.3778657}},
{{-0.0872274}},
{{-0.1464441}},
{{0.3118991}},
{{-0.1019711}},
{{0.4491277}},
{{-0.1388840}},
{{-0.2216042}},
{{0.2053179}},
{{-0.2191955}},
{{-0.0678766}},
{{0.2671829}},
{{0.3744673}},
{{0.1522446}},
{{-0.1055446}},
{{0.1223739}},
{{0.2432401}},
{{0.0164740}},
{{0.0212706}},
{{0.3358967}},
{{0.3361909}},
{{0.1039759}},
{{-0.0293815}},
{{-0.2784392}},
{{0.3902979}},
{{0.2305242}},
{{0.1526604}},
{{-0.0793543}},
{{0.1376034}},
{{-0.3751940}},
{{-0.2001016}},
{{-0.3854672}},
{{0.3629569}},
{{-0.1761748}},
{{0.2701732}},
{{0.0140279}},
{{0.2504196}},
{{-0.1451786}},
{{0.2342379}},
{{-0.0090385}},
{{-0.0738135}},
{{-0.1878851}},
{{0.2098375}},
{{-0.4825223}},
{{-0.1633601}},
{{0.4271705}},
{{0.3732334}},
{{-0.2419221}},
{{0.2547566}},
{{0.1157444}},
{{0.2960396}},
{{0.0820835}}},
{{{-0.1663266}},
{{-0.4726582}},
{{0.7320268}},
{{-0.0197452}},
{{-0.3907783}},
{{0.1462854}},
{{-0.0314133}},
{{-0.1813398}},
{{0.2472705}},
{{-0.2804771}},
{{0.1757037}},
{{0.5218025}},
{{0.6292846}},
{{-0.1829922}},
{{-0.2258412}},
{{-0.6063780}},
{{0.0391038}},
{{-0.1502545}},
{{0.4534004}},
{{0.3095627}},
{{0.1762039}},
{{-0.2830263}},
{{0.3076656}},
{{-0.4756159}},
{{-0.3272981}},
{{-0.7187578}},
{{-0.2971393}},
{{0.4206623}},
{{0.0316019}},
{{-0.2772119}},
{{0.3715672}},
{{0.3008685}},
{{-0.0986245}},
{{-0.4596070}},
{{0.0535135}},
{{0.2571094}},
{{-0.4143417}},
{{0.4767470}},
{{-0.5609630}},
{{-0.0827876}},
{{0.4419549}},
{{0.0855517}},
{{-0.0841698}},
{{-0.0592590}},
{{-0.5636037}},
{{0.1854097}},
{{-0.2946568}},
{{0.1562247}},
{{0.2968049}},
{{-0.2572941}},
{{-0.2811043}},
{{-0.0675997}},
{{-0.2914561}},
{{0.4460460}},
{{-0.3647083}},
{{-0.3328891}},
{{-0.0707206}},
{{0.1015954}},
{{0.0592352}},
{{-0.3374772}},
{{0.0938548}},
{{0.2769369}},
{{-0.5621303}},
{{0.2224096}}},
{{{-0.2224480}},
{{0.0507446}},
{{-0.2071142}},
{{-0.3152712}},
{{0.4094580}},
{{-0.3510013}},
{{0.0603551}},
{{-0.1971283}},
{{-0.1802211}},
{{-0.4635282}},
{{-0.0173082}},
{{0.1667733}},
{{-0.3311127}},
{{-0.2017802}},
{{0.0844348}},
{{-0.0574667}},
{{-0.0908343}},
{{0.0954822}},
{{0.0050025}},
{{-0.2738932}},
{{0.0241497}},
{{0.1275937}},
{{-0.2002731}},
{{0.3262887}},
{{-0.0517346}},
{{0.1137587}},
{{-0.1118555}},
{{-0.2073227}},
{{0.1578069}},
{{0.0536157}},
{{-0.1843080}},
{{-0.2265864}},
{{0.0069650}},
{{-0.1222675}},
{{0.1458264}},
{{-0.0343950}},
{{-0.0627378}},
{{-0.1834445}},
{{-0.0356733}},
{{-0.2427121}},
{{0.1672243}},
{{0.0693381}},
{{0.2232421}},
{{-0.2451837}},
{{-0.2957414}},
{{0.1920409}},
{{0.2065727}},
{{-0.1978141}},
{{0.0770424}},
{{-0.0907588}},
{{-0.0301308}},
{{-0.2990877}},
{{0.2299469}},
{{-0.0374972}},
{{0.0931548}},
{{-0.3292774}},
{{0.3174400}},
{{-0.3457363}},
{{-0.4223086}},
{{-0.0629873}},
{{-0.0849047}},
{{0.0324088}},
{{-0.2852817}},
{{0.0067066}}},
{{{-0.0146527}},
{{-0.3053258}},
{{0.1132222}},
{{-0.1560180}},
{{-0.0224023}},
{{-0.2910109}},
{{0.2036822}},
{{0.2387051}},
{{-0.2225570}},
{{-0.3835360}},
{{-0.0753002}},
{{0.4797480}},
{{-0.0898881}},
{{0.0180019}},
{{0.1994343}},
{{-0.5732778}},
{{0.5048050}},
{{0.2870846}},
{{0.2422716}},
{{0.2504253}},
{{0.4637144}},
{{0.1866107}},
{{0.1483485}},
{{-0.3041400}},
{{-0.2694782}},
{{0.1186635}},
{{0.1304088}},
{{0.1772078}},
{{-0.1692487}},
{{-0.3591318}},
{{0.0590037}},
{{-0.4749144}},
{{0.3395590}},
{{0.3229688}},
{{-0.1108321}},
{{0.1186549}},
{{-0.3240067}},
{{0.1894223}},
{{-0.1203648}},
{{-0.3693571}},
{{0.2277845}},
{{-0.1756618}},
{{-0.2168380}},
{{-0.4508113}},
{{0.2240935}},
{{-0.3869496}},
{{-0.2846452}},
{{-0.1533474}},
{{0.1545812}},
{{-0.3538595}},
{{0.1201489}},
{{0.0488147}},
{{0.0001330}},
{{0.2107102}},
{{-0.1428067}},
{{-0.1673237}},
{{-0.4703027}},
{{0.1371894}},
{{-0.4148225}},
{{-0.2543228}},
{{-0.1894122}},
{{0.0415073}},
{{0.1508575}},
{{-0.3656868}}},
{{{0.0377007}},
{{-0.0778083}},
{{0.2257095}},
{{0.0681555}},
{{0.0392755}},
{{0.3224771}},
{{0.0244409}},
{{0.1784827}},
{{0.1688683}},
{{-0.0771532}},
{{0.1799919}},
{{0.3026241}},
{{-0.0257484}},
{{0.6798427}},
{{-0.1978030}},
{{-0.0510602}},
{{-0.0216474}},
{{0.4082896}},
{{0.4580653}},
{{-0.1526895}},
{{0.2756059}},
{{-0.4038116}},
{{0.2593061}},
{{-0.0216853}},
{{0.2016992}},
{{-0.3541498}},
{{-0.5284643}},
{{-0.2095868}},
{{-0.1049640}},
{{0.0239798}},
{{0.0922820}},
{{-0.2957382}},
{{0.2178583}},
{{0.2852520}},
{{-0.2361452}},
{{0.4296683}},
{{-0.0556042}},
{{0.2719344}},
{{0.3084504}},
{{0.0846584}},
{{0.0709050}},
{{0.0270985}},
{{-0.4483631}},
{{0.2265890}},
{{0.2267481}},
